{"learner":{"attributes":{"scikit_learn":"{\"_estimator_type\": \"classifier\"}"},"feature_names":["RSI_14","MACD_12_26_9","MACDh_12_26_9","MACDs_12_26_9","EMA_20","EMA_50","ema_long_term","BBL_20_2.0","BBM_20_2.0","BBU_20_2.0","BBB_20_2.0","BBP_20_2.0","ATRr_14","OBV","atr_sma","atr_ratio","price_vs_ema_long","rsi_change","hour","day_of_week"],"feature_types":["float","float","float","float","float","float","float","float","float","float","float","float","float","float","float","float","float","float","int","int"],"gradient_booster":{"model":{"gbtree_model_param":{"num_parallel_tree":"1","num_trees":"2500"},"iteration_indptr":[0,5,10,15,20,25,30,35,40,45,50,55,60,65,70,75,80,85,90,95,100,105,110,115,120,125,130,135,140,145,150,155,160,165,170,175,180,185,190,195,200,205,210,215,220,225,230,235,240,245,250,255,260,265,270,275,280,285,290,295,300,305,310,315,320,325,330,335,340,345,350,355,360,365,370,375,380,385,390,395,400,405,410,415,420,425,430,435,440,445,450,455,460,465,470,475,480,485,490,495,500,505,510,515,520,525,530,535,540,545,550,555,560,565,570,575,580,585,590,595,600,605,610,615,620,625,630,635,640,645,650,655,660,665,670,675,680,685,690,695,700,705,710,715,720,725,730,735,740,745,750,755,760,765,770,775,780,785,790,795,800,805,810,815,820,825,830,835,840,845,850,855,860,865,870,875,880,885,890,895,900,905,910,915,920,925,930,935,940,945,950,955,960,965,970,975,980,985,990,995,1000,1005,1010,1015,1020,1025,1030,1035,1040,1045,1050,1055,1060,1065,1070,1075,1080,1085,1090,1095,1100,1105,1110,1115,1120,1125,1130,1135,1140,1145,1150,1155,1160,1165,1170,1175,1180,1185,1190,1195,1200,1205,1210,1215,1220,1225,1230,1235,1240,1245,1250,1255,1260,1265,1270,1275,1280,1285,1290,1295,1300,1305,1310,1315,1320,1325,1330,1335,1340,1345,1350,1355,1360,1365,1370,1375,1380,1385,1390,1395,1400,1405,1410,1415,1420,1425,1430,1435,1440,1445,1450,1455,1460,1465,1470,1475,1480,1485,1490,1495,1500,1505,1510,1515,1520,1525,1530,1535,1540,1545,1550,1555,1560,1565,1570,1575,1580,1585,1590,1595,1600,1605,1610,1615,1620,1625,1630,1635,1640,1645,1650,1655,1660,1665,1670,1675,1680,1685,1690,1695,1700,1705,1710,1715,1720,1725,1730,1735,1740,1745,1750,1755,1760,1765,1770,1775,1780,1785,1790,1795,1800,1805,1810,1815,1820,1825,1830,1835,1840,1845,1850,1855,1860,1865,1870,1875,1880,1885,1890,1895,1900,1905,1910,1915,1920,1925,1930,1935,1940,1945,1950,1955,1960,1965,1970,1975,1980,1985,1990,1995,2000,2005,2010,2015,2020,2025,2030,2035,2040,2045,2050,2055,2060,2065,2070,2075,2080,2085,2090,2095,2100,2105,2110,2115,2120,2125,2130,2135,2140,2145,2150,2155,2160,2165,2170,2175,2180,2185,2190,2195,2200,2205,2210,2215,2220,2225,2230,2235,2240,2245,2250,2255,2260,2265,2270,2275,2280,2285,2290,2295,2300,2305,2310,2315,2320,2325,2330,2335,2340,2345,2350,2355,2360,2365,2370,2375,2380,2385,2390,2395,2400,2405,2410,2415,2420,2425,2430,2435,2440,2445,2450,2455,2460,2465,2470,2475,2480,2485,2490,2495,2500],"tree_info":[0,1,2,3,4,0,1,2,3,4,0,1,2,3,4,0,1,2,3,4,0,1,2,3,4,0,1,2,3,4,0,1,2,3,4,0,1,2,3,4,0,1,2,3,4,0,1,2,3,4,0,1,2,3,4,0,1,2,3,4,0,1,2,3,4,0,1,2,3,4,0,1,2,3,4,0,1,2,3,4,0,1,2,3,4,0,1,2,3,4,0,1,2,3,4,0,1,2,3,4,0,1,2,3,4,0,1,2,3,4,0,1,2,3,4,0,1,2,3,4,0,1,2,3,4,0,1,2,3,4,0,1,2,3,4,0,1,2,3,4,0,1,2,3,4,0,1,2,3,4,0,1,2,3,4,0,1,2,3,4,0,1,2,3,4,0,1,2,3,4,0,1,2,3,4,0,1,2,3,4,0,1,2,3,4,0,1,2,3,4,0,1,2,3,4,0,1,2,3,4,0,1,2,3,4,0,1,2,3,4,0,1,2,3,4,0,1,2,3,4,0,1,2,3,4,0,1,2,3,4,0,1,2,3,4,0,1,2,3,4,0,1,2,3,4,0,1,2,3,4,0,1,2,3,4,0,1,2,3,4,0,1,2,3,4,0,1,2,3,4,0,1,2,3,4,0,1,2,3,4,0,1,2,3,4,0,1,2,3,4,0,1,2,3,4,0,1,2,3,4,0,1,2,3,4,0,1,2,3,4,0,1,2,3,4,0,1,2,3,4,0,1,2,3,4,0,1,2,3,4,0,1,2,3,4,0,1,2,3,4,0,1,2,3,4,0,1,2,3,4,0,1,2,3,4,0,1,2,3,4,0,1,2,3,4,0,1,2,3,4,0,1,2,3,4,0,1,2,3,4,0,1,2,3,4,0,1,2,3,4,0,1,2,3,4,0,1,2,3,4,0,1,2,3,4,0,1,2,3,4,0,1,2,3,4,0,1,2,3,4,0,1,2,3,4,0,1,2,3,4,0,1,2,3,4,0,1,2,3,4,0,1,2,3,4,0,1,2,3,4,0,1,2,3,4,0,1,2,3,4,0,1,2,3,4,0,1,2,3,4,0,1,2,3,4,0,1,2,3,4,0,1,2,3,4,0,1,2,3,4,0,1,2,3,4,0,1,2,3,4,0,1,2,3,4,0,1,2,3,4,0,1,2,3,4,0,1,2,3,4,0,1,2,3,4,0,1,2,3,4,0,1,2,3,4,0,1,2,3,4,0,1,2,3,4,0,1,2,3,4,0,1,2,3,4,0,1,2,3,4,0,1,2,3,4,0,1,2,3,4,0,1,2,3,4,0,1,2,3,4,0,1,2,3,4,0,1,2,3,4,0,1,2,3,4,0,1,2,3,4,0,1,2,3,4,0,1,2,3,4,0,1,2,3,4,0,1,2,3,4,0,1,2,3,4,0,1,2,3,4,0,1,2,3,4,0,1,2,3,4,0,1,2,3,4,0,1,2,3,4,0,1,2,3,4,0,1,2,3,4,0,1,2,3,4,0,1,2,3,4,0,1,2,3,4,0,1,2,3,4,0,1,2,3,4,0,1,2,3,4,0,1,2,3,4,0,1,2,3,4,0,1,2,3,4,0,1,2,3,4,0,1,2,3,4,0,1,2,3,4,0,1,2,3,4,0,1,2,3,4,0,1,2,3,4,0,1,2,3,4,0,1,2,3,4,0,1,2,3,4,0,1,2,3,4,0,1,2,3,4,0,1,2,3,4,0,1,2,3,4,0,1,2,3,4,0,1,2,3,4,0,1,2,3,4,0,1,2,3,4,0,1,2,3,4,0,1,2,3,4,0,1,2,3,4,0,1,2,3,4,0,1,2,3,4,0,1,2,3,4,0,1,2,3,4,0,1,2,3,4,0,1,2,3,4,0,1,2,3,4,0,1,2,3,4,0,1,2,3,4,0,1,2,3,4,0,1,2,3,4,0,1,2,3,4,0,1,2,3,4,0,1,2,3,4,0,1,2,3,4,0,1,2,3,4,0,1,2,3,4,0,1,2,3,4,0,1,2,3,4,0,1,2,3,4,0,1,2,3,4,0,1,2,3,4,0,1,2,3,4,0,1,2,3,4,0,1,2,3,4,0,1,2,3,4,0,1,2,3,4,0,1,2,3,4,0,1,2,3,4,0,1,2,3,4,0,1,2,3,4,0,1,2,3,4,0,1,2,3,4,0,1,2,3,4,0,1,2,3,4,0,1,2,3,4,0,1,2,3,4,0,1,2,3,4,0,1,2,3,4,0,1,2,3,4,0,1,2,3,4,0,1,2,3,4,0,1,2,3,4,0,1,2,3,4,0,1,2,3,4,0,1,2,3,4,0,1,2,3,4,0,1,2,3,4,0,1,2,3,4,0,1,2,3,4,0,1,2,3,4,0,1,2,3,4,0,1,2,3,4,0,1,2,3,4,0,1,2,3,4,0,1,2,3,4,0,1,2,3,4,0,1,2,3,4,0,1,2,3,4,0,1,2,3,4,0,1,2,3,4,0,1,2,3,4,0,1,2,3,4,0,1,2,3,4,0,1,2,3,4,0,1,2,3,4,0,1,2,3,4,0,1,2,3,4,0,1,2,3,4,0,1,2,3,4,0,1,2,3,4,0,1,2,3,4,0,1,2,3,4,0,1,2,3,4,0,1,2,3,4,0,1,2,3,4,0,1,2,3,4,0,1,2,3,4,0,1,2,3,4,0,1,2,3,4,0,1,2,3,4,0,1,2,3,4,0,1,2,3,4,0,1,2,3,4,0,1,2,3,4,0,1,2,3,4,0,1,2,3,4,0,1,2,3,4,0,1,2,3,4,0,1,2,3,4,0,1,2,3,4,0,1,2,3,4,0,1,2,3,4,0,1,2,3,4,0,1,2,3,4,0,1,2,3,4,0,1,2,3,4,0,1,2,3,4,0,1,2,3,4,0,1,2,3,4,0,1,2,3,4,0,1,2,3,4,0,1,2,3,4,0,1,2,3,4,0,1,2,3,4,0,1,2,3,4,0,1,2,3,4,0,1,2,3,4,0,1,2,3,4,0,1,2,3,4,0,1,2,3,4,0,1,2,3,4,0,1,2,3,4,0,1,2,3,4,0,1,2,3,4,0,1,2,3,4,0,1,2,3,4,0,1,2,3,4,0,1,2,3,4,0,1,2,3,4,0,1,2,3,4,0,1,2,3,4,0,1,2,3,4,0,1,2,3,4,0,1,2,3,4,0,1,2,3,4,0,1,2,3,4,0,1,2,3,4,0,1,2,3,4,0,1,2,3,4,0,1,2,3,4,0,1,2,3,4,0,1,2,3,4,0,1,2,3,4,0,1,2,3,4,0,1,2,3,4,0,1,2,3,4,0,1,2,3,4,0,1,2,3,4,0,1,2,3,4,0,1,2,3,4,0,1,2,3,4,0,1,2,3,4,0,1,2,3,4,0,1,2,3,4,0,1,2,3,4,0,1,2,3,4,0,1,2,3,4,0,1,2,3,4,0,1,2,3,4,0,1,2,3,4,0,1,2,3,4,0,1,2,3,4,0,1,2,3,4,0,1,2,3,4,0,1,2,3,4,0,1,2,3,4,0,1,2,3,4,0,1,2,3,4,0,1,2,3,4,0,1,2,3,4,0,1,2,3,4,0,1,2,3,4,0,1,2,3,4,0,1,2,3,4,0,1,2,3,4,0,1,2,3,4,0,1,2,3,4,0,1,2,3,4,0,1,2,3,4,0,1,2,3,4,0,1,2,3,4,0,1,2,3,4,0,1,2,3,4,0,1,2,3,4,0,1,2,3,4,0,1,2,3,4,0,1,2,3,4,0,1,2,3,4,0,1,2,3,4,0,1,2,3,4,0,1,2,3,4,0,1,2,3,4,0,1,2,3,4,0,1,2,3,4,0,1,2,3,4,0,1,2,3,4,0,1,2,3,4,0,1,2,3,4,0,1,2,3,4,0,1,2,3,4,0,1,2,3,4,0,1,2,3,4,0,1,2,3,4,0,1,2,3,4,0,1,2,3,4,0,1,2,3,4,0,1,2,3,4,0,1,2,3,4,0,1,2,3,4,0,1,2,3,4,0,1,2,3,4,0,1,2,3,4,0,1,2,3,4,0,1,2,3,4,0,1,2,3,4,0,1,2,3,4,0,1,2,3,4,0,1,2,3,4,0,1,2,3,4,0,1,2,3,4,0,1,2,3,4,0,1,2,3,4,0,1,2,3,4,0,1,2,3,4,0,1,2,3,4,0,1,2,3,4,0,1,2,3,4,0,1,2,3,4,0,1,2,3,4,0,1,2,3,4,0,1,2,3,4,0,1,2,3,4,0,1,2,3,4,0,1,2,3,4,0,1,2,3,4,0,1,2,3,4,0,1,2,3,4,0,1,2,3,4,0,1,2,3,4,0,1,2,3,4,0,1,2,3,4,0,1,2,3,4,0,1,2,3,4,0,1,2,3,4,0,1,2,3,4,0,1,2,3,4,0,1,2,3,4,0,1,2,3,4,0,1,2,3,4,0,1,2,3,4,0,1,2,3,4,0,1,2,3,4,0,1,2,3,4,0,1,2,3,4,0,1,2,3,4,0,1,2,3,4,0,1,2,3,4,0,1,2,3,4,0,1,2,3,4,0,1,2,3,4,0,1,2,3,4,0,1,2,3,4,0,1,2,3,4,0,1,2,3,4,0,1,2,3,4,0,1,2,3,4,0,1,2,3,4,0,1,2,3,4,0,1,2,3,4,0,1,2,3,4,0,1,2,3,4,0,1,2,3,4,0,1,2,3,4,0,1,2,3,4,0,1,2,3,4,0,1,2,3,4,0,1,2,3,4,0,1,2,3,4,0,1,2,3,4,0,1,2,3,4,0,1,2,3,4,0,1,2,3,4,0,1,2,3,4,0,1,2,3,4,0,1,2,3,4,0,1,2,3,4,0,1,2,3,4,0,1,2,3,4,0,1,2,3,4,0,1,2,3,4,0,1,2,3,4,0,1,2,3,4,0,1,2,3,4,0,1,2,3,4,0,1,2,3,4,0,1,2,3,4,0,1,2,3,4,0,1,2,3,4,0,1,2,3,4,0,1,2,3,4,0,1,2,3,4,0,1,2,3,4,0,1,2,3,4,0,1,2,3,4,0,1,2,3,4,0,1,2,3,4,0,1,2,3,4,0,1,2,3,4,0,1,2,3,4,0,1,2,3,4,0,1,2,3,4,0,1,2,3,4,0,1,2,3,4,0,1,2,3,4,0,1,2,3,4,0,1,2,3,4,0,1,2,3,4,0,1,2,3,4,0,1,2,3,4,0,1,2,3,4,0,1,2,3,4,0,1,2,3,4,0,1,2,3,4,0,1,2,3,4,0,1,2,3,4,0,1,2,3,4,0,1,2,3,4,0,1,2,3,4,0,1,2,3,4,0,1,2,3,4,0,1,2,3,4,0,1,2,3,4,0,1,2,3,4,0,1,2,3,4,0,1,2,3,4,0,1,2,3,4,0,1,2,3,4,0,1,2,3,4,0,1,2,3,4,0,1,2,3,4,0,1,2,3,4,0,1,2,3,4,0,1,2,3,4,0,1,2,3,4,0,1,2,3,4,0,1,2,3,4,0,1,2,3,4,0,1,2,3,4],"trees":[{"base_weights":[-2.1551305E-3,6.5704024E-1,-6.23144E-1,-4.1618988E-2,2.4713492E0,-6.241834E-1,-1.4848746E-1,-3.1213028E-2,7.7570057E-1,-7.6455832E-3,1.2477344E-1,6.645456E-3,-3.1235253E-2,-2.4367878E-2,2.7485264E-2,8.7206446E-2,-5.5432646E-3],"categories":[],"categories_nodes":[],"categories_segments":[],"categories_sizes":[],"default_left":[0,0,0,0,0,0,0,0,0,0,0,0,0,0,0,0,0],"id":0,"left_children":[1,3,5,7,9,11,13,-1,15,-1,-1,-1,-1,-1,-1,-1,-1],"loss_changes":[1.6899923E3,2.538591E3,9.5617676E-1,6.894718E2,3.5624268E1,9.2077637E-1,1.6773787E0,0E0,5.1756604E2,0E0,0E0,0E0,0E0,0E0,0E0,0E0,0E0],"parents":[2147483647,0,0,1,1,2,2,3,3,4,4,5,5,6,6,8,8],"right_children":[2,4,6,8,10,12,14,-1,16,-1,-1,-1,-1,-1,-1,-1,-1],"split_conditions":[2.4372928E4,6.6874656E5,2.747335E0,4.5271647E5,5.618657E-1,2.6521979E4,-2.2272847E3,-3.1213028E-2,4.3765707E-3,-7.6455832E-3,1.2477344E-1,6.645456E-3,-3.1235253E-2,-2.4367878E-2,2.7485264E-2,8.7206446E-2,-5.5432646E-3],"split_indices":[7,13,15,13,15,8,1,0,16,0,0,0,0,0,0,0,0],"split_type":[0,0,0,0,0,0,0,0,0,0,0,0,0,0,0,0,0],"sum_hessian":[4.1264478E3,2.0016198E3,2.1248281E3,1.4458318E3,5.557879E2,2.1198708E3,4.9572935E0,8.442375E2,6.015943E2,5.0131226E0,5.507748E2,1.285053E0,2.1185857E3,3.540751E0,1.4165423E0,2.8706042E2,3.1453387E2],"tree_param":{"num_deleted":"0","num_feature":"20","num_nodes":"17","size_leaf_vector":"1"}},{"base_weights":[-5.606001E-3,1.24349944E-1,-1.2642127E-1,-3.6345494E-1,5.9691805E-1,6.366323E-2,-4.639412E-1,1.587993E-1,1.8715551E0,-3.1177646E-2,1.0978738E-1,-3.0500362E-2,-1.5928378E-2,-3.1103948E-2,2.4080379E-2,-2.9797683E-2,1.21150196E-1],"categories":[],"categories_nodes":[],"categories_segments":[],"categories_sizes":[],"default_left":[0,0,0,0,0,0,0,0,0,0,0,0,0,0,0,0,0],"id":1,"left_children":[1,-1,3,5,7,9,11,13,15,-1,-1,-1,-1,-1,-1,-1,-1],"loss_changes":[1.2526265E3,0E0,6.804187E2,1.2830188E2,5.4672125E2,8.3667303E2,5.118329E1,1.8433154E2,3.4226263E2,0E0,0E0,0E0,0E0,0E0,0E0,0E0,0E0],"parents":[2147483647,0,0,2,2,3,3,4,4,5,5,6,6,7,7,8,8],"right_children":[2,-1,4,6,8,10,12,14,16,-1,-1,-1,-1,-1,-1,-1,-1],"split_conditions":[1.6721115E4,1.24349944E-1,5.292204E2,1.9132258E4,7.5221275E5,2.1262289E5,2.6898087E2,-8.611855E3,4.587902E4,-3.1177646E-2,1.0978738E-1,-3.0500362E-2,-1.5928378E-2,-3.1103948E-2,2.4080379E-2,-2.9797683E-2,1.21150196E-1],"split_indices":[6,0,14,6,13,13,14,13,4,0,0,0,0,0,0,0,0],"split_type":[0,0,0,0,0,0,0,0,0,0,0,0,0,0,0,0,0],"sum_hessian":[4.157506E3,1.912911E2,3.9662146E3,2.9876714E3,9.785433E2,5.6909436E2,2.418577E3,7.290712E2,2.4947205E2,4.3091034E2,1.3818404E2,1.2048212E3,1.2137557E3,2.1296895E2,5.161023E2,4.555433E1,2.0391771E2],"tree_param":{"num_deleted":"0","num_feature":"20","num_nodes":"17","size_leaf_vector":"1"}},{"base_weights":[1.0880803E-2,-3.1234426E-2,6.2063533E-1,1.9897765E0,-5.537327E-1,5.029651E-1,2.1639204E0,1.1914118E-1,-6.2041825E-1,6.6236526E-2,-1.9538464E-2,1.2179219E-1,9.55409E-2,7.326802E-2,-3.1221613E-2],"categories":[],"categories_nodes":[],"categories_segments":[],"categories_sizes":[],"default_left":[0,0,0,0,0,0,0,0,0,0,0,0,0,0,0],"id":2,"left_children":[1,-1,3,5,7,9,11,-1,13,-1,-1,-1,-1,-1,-1],"loss_changes":[1.5881969E3,0E0,3.3640303E3,2.4900244E2,2.2210175E2,7.585179E1,5.4832275E1,0E0,1.0144867E1,0E0,0E0,0E0,0E0,0E0,0E0],"parents":[2147483647,0,0,2,2,3,3,4,4,5,5,6,6,8,8],"right_children":[2,-1,4,6,8,10,12,-1,14,-1,-1,-1,-1,-1,-1],"split_conditions":[3.1487643E4,-3.1234426E-2,4.0133027E4,6.216341E5,-1.6320768E-1,-1.4148488E2,5.148141E2,1.1914118E-1,4.067121E4,6.6236526E-2,-1.9538464E-2,1.2179219E-1,9.55409E-2,7.326802E-2,-3.1221613E-2],"split_indices":[6,0,4,13,16,1,14,0,9,0,0,0,0,0,0],"split_type":[0,0,0,0,0,0,0,0,0,0,0,0,0,0,0],"sum_hessian":[4.0961357E3,2.0056008E3,2.0905352E3,9.64904E2,1.1256311E3,1.0157357E2,8.6333044E2,2.4222876E1,1.1014082E3,5.2666164E1,4.8907406E1,4.1203333E2,4.512971E2,1.4163004E0,1.099992E3],"tree_param":{"num_deleted":"0","num_feature":"20","num_nodes":"15","size_leaf_vector":"1"}},{"base_weights":[1.2808548E-2,1.0976791E0,-3.1238124E-2,-3.1092072E-2,1.348969E0,2.4117975E0,7.8881776E-1,1.211998E-1,-2.032997E-2,2.5112398E-3,1.0877855E-1],"categories":[],"categories_nodes":[],"categories_segments":[],"categories_sizes":[],"default_left":[0,0,0,0,0,0,0,0,0,0,0],"id":3,"left_children":[1,3,-1,-1,5,7,9,-1,-1,-1,-1],"loss_changes":[2.8898965E3,6.690919E2,0E0,0E0,8.0160767E2,1.6983643E1,9.066808E2,0E0,0E0,0E0,0E0],"parents":[2147483647,0,0,1,1,4,4,5,5,6,6],"right_children":[2,4,-1,-1,6,8,10,-1,-1,-1,-1],"split_conditions":[2.053998E4,1.6721115E4,-3.1238124E-2,-3.1092072E-2,1.755771E4,6.3940014E1,2.0229531E4,1.211998E-1,-2.032997E-2,2.5112398E-3,1.0877855E-1],"split_indices":[6,6,0,0,4,0,5,0,0,0,0],"split_type":[0,0,0,0,0,0,0,0,0,0,0],"sum_hessian":[4.1760796E3,1.5455311E3,2.6305483E3,1.9687624E2,1.3486549E3,4.6433054E2,8.8432434E2,4.6246884E2,1.8617139E0,5.7768317E2,3.066412E2],"tree_param":{"num_deleted":"0","num_feature":"20","num_nodes":"11","size_leaf_vector":"1"}},{"base_weights":[-8.797329E-3,2.1844535E0,-6.1259085E-1,-3.0908093E-2,1.248462E-1,-3.1240437E-2,1.1596017E-1],"categories":[],"categories_nodes":[],"categories_segments":[],"categories_sizes":[],"default_left":[0,0,0,0,0,0,0],"id":4,"left_children":[1,3,5,-1,-1,-1,-1],"loss_changes":[5.540713E3,7.924966E2,1.1896753E2,0E0,0E0,0E0,0E0],"parents":[2147483647,0,0,1,1,2,2],"right_children":[2,4,6,-1,-1,-1,-1],"split_conditions":[-3.997012E4,1.6664877E4,6.054827E4,-3.0908093E-2,1.248462E-1,-3.1240437E-2,1.1596017E-1],"split_indices":[13,4,4,0,0,0,0],"split_type":[0,0,0,0,0,0,0],"sum_hessian":[4.181963E3,9.0218854E2,3.2797742E3,9.039934E1,8.1178925E2,3.2669465E3,1.2827698E1],"tree_param":{"num_deleted":"0","num_feature":"20","num_nodes":"7","size_leaf_vector":"1"}},{"base_weights":[1.1972705E-2,6.4391214E-1,-6.164823E-1,-3.0988107E-2,1.4899373E0,3.4373727E-1,-3.0983824E-2,7.8358954E-1,1.1087071E-1,7.992707E-2,-2.5010029E-2,8.033148E-2,-6.734942E-3],"categories":[],"categories_nodes":[],"categories_segments":[],"categories_sizes":[],"default_left":[0,0,0,0,0,0,0,0,0,0,0,0,0],"id":5,"left_children":[1,3,5,-1,7,9,-1,11,-1,-1,-1,-1,-1],"loss_changes":[1.6381786E3,2.1997742E3,6.5562134E0,0E0,6.314514E2,8.741987E0,0E0,4.739035E2,0E0,0E0,0E0,0E0,0E0],"parents":[2147483647,0,0,1,1,2,2,4,4,5,5,7,7],"right_children":[2,4,6,-1,8,10,-1,12,-1,-1,-1,-1,-1],"split_conditions":[2.6218326E4,4.5271647E5,1.830031E1,-3.0988107E-2,6.755355E5,3.0993695E4,-3.0983824E-2,8.676002E-3,1.1087071E-1,7.992707E-2,-2.5010029E-2,8.033148E-2,-6.734942E-3],"split_indices":[4,13,0,0,13,4,0,16,0,0,0,0,0],"split_type":[0,0,0,0,0,0,0,0,0,0,0,0,0],"sum_hessian":[4.122883E3,2.0557305E3,2.0671526E3,8.244899E2,1.2312405E3,6.5000668E0,2.0606526E3,6.25746E2,6.054945E2,2.2542307E0,4.245836E0,3.2959143E2,2.9615454E2],"tree_param":{"num_deleted":"0","num_feature":"20","num_nodes":"13","size_leaf_vector":"1"}},{"base_weights":[1.448991E-4,1.100718E-1,-1.1819868E-1,-3.3226717E-1,5.6276274E-1,-3.101926E-2,-1.7578003E-1,1.8283078E-1,1.5993568E0,7.590693E-2,-2.2301372E-2,-3.0873952E-2,2.599494E-2,-3.0600011E-2,1.1024556E-1],"categories":[],"categories_nodes":[],"categories_segments":[],"categories_sizes":[],"default_left":[0,0,0,0,0,0,0,0,0,0,0,0,0,0,0],"id":6,"left_children":[1,-1,3,5,7,-1,9,11,13,-1,-1,-1,-1,-1,-1],"loss_changes":[1.079648E3,0E0,5.7350195E2,1.3483176E2,3.703193E2,0E0,8.891754E2,1.8639081E2,3.3916193E2,0E0,0E0,0E0,0E0,0E0,0E0],"parents":[2147483647,0,0,2,2,3,3,4,4,6,6,7,7,8,8],"right_children":[2,-1,4,6,8,-1,10,12,14,-1,-1,-1,-1,-1,-1],"split_conditions":[1.6721115E4,1.100718E-1,5.4298724E2,2.1262289E5,7.500219E5,-3.101926E-2,4.7445444E5,-8.611855E3,4.153929E4,7.590693E-2,-2.2301372E-2,-3.0873952E-2,2.599494E-2,-3.0600011E-2,1.1024556E-1],"split_indices":[6,0,12,13,13,0,13,13,7,0,0,0,0,0,0],"split_type":[0,0,0,0,0,0,0,0,0,0,0,0,0,0,0],"sum_hessian":[4.1423857E3,2.1043901E2,3.9319465E3,2.991914E3,9.400324E2,1.052017E3,1.9398971E3,6.887635E2,2.512689E2,2.6627292E2,1.6736241E3,2.038722E2,4.8489133E2,5.401326E1,1.9725566E2],"tree_param":{"num_deleted":"0","num_feature":"20","num_nodes":"15","size_leaf_vector":"1"}},{"base_weights":[2.9905057E-3,-3.0992126E-2,5.9649795E-1,1.7987902E0,-6.173515E-1,3.948171E-1,1.9542128E0,3.3163995E-2,-3.0970415E-2,7.136746E-2,-1.5626853E-2,8.842596E-2,1.12400234E-1],"categories":[],"categories_nodes":[],"categories_segments":[],"categories_sizes":[],"default_left":[0,0,0,0,0,0,0,0,0,0,0,0,0],"id":7,"left_children":[1,-1,3,5,7,9,11,-1,-1,-1,-1,-1,-1],"loss_changes":[1.5469305E3,0E0,3.1283691E3,2.3419556E2,3.2214355E0,7.974633E1,4.8900635E1,0E0,0E0,0E0,0E0,0E0,0E0],"parents":[2147483647,0,0,2,2,3,3,4,4,5,5,6,6],"right_children":[2,-1,4,6,8,10,12,-1,-1,-1,-1,-1,-1],"split_conditions":[3.1487643E4,-3.0992126E-2,3.982336E4,6.216341E5,-1.5170479E-1,3.1101197E4,7.071161E5,3.3163995E-2,-3.0970415E-2,7.136746E-2,-1.5626853E-2,8.842596E-2,1.12400234E-1],"split_indices":[6,0,7,13,16,7,13,0,0,0,0,0,0],"split_type":[0,0,0,0,0,0,0,0,0,0,0,0,0],"sum_hessian":[4.182783E3,2.0409471E3,2.1418362E3,1.0757985E3,1.0660376E3,1.0757605E2,9.682225E2,1.1939173E0,1.0648436E3,4.3321438E1,6.425461E1,5.975532E2,3.7066922E2],"tree_param":{"num_deleted":"0","num_feature":"20","num_nodes":"13","size_leaf_vector":"1"}},{"base_weights":[1.0499964E-2,1.0255759E0,-3.0992836E-2,1.2687457E0,-3.1103212E-2,-3.0835727E-2,1.5664923E0,1.1112167E-1,5.2350696E-2],"categories":[],"categories_nodes":[],"categories_segments":[],"categories_sizes":[],"default_left":[0,0,0,0,0,0,0,0,0],"id":8,"left_children":[1,3,-1,5,-1,-1,7,-1,-1],"loss_changes":[2.6671326E3,6.4057837E2,0E0,7.823174E2,0E0,0E0,4.073474E2,0E0,0E0],"parents":[2147483647,0,0,1,1,3,3,6,6],"right_children":[2,4,-1,6,-1,-1,8,-1,-1],"split_conditions":[2.053998E4,6.755355E5,-3.0992836E-2,1.6721115E4,-3.1103212E-2,-3.0835727E-2,2.1262289E5,1.1112167E-1,5.2350696E-2],"split_indices":[6,13,0,6,0,0,13,0,0],"split_type":[0,0,0,0,0,0,0,0,0],"sum_hessian":[4.1663135E3,1.5958528E3,2.5704607E3,1.3908168E3,2.0503609E2,1.8953406E2,1.2012827E3,5.2945996E2,6.718227E2],"tree_param":{"num_deleted":"0","num_feature":"20","num_nodes":"9","size_leaf_vector":"1"}},{"base_weights":[5.8961357E-4,1.9468417E0,-6.059307E-1,-3.0672891E-2,1.1065012E-1,-3.0997455E-2,1.04694806E-1],"categories":[],"categories_nodes":[],"categories_segments":[],"categories_sizes":[],"default_left":[0,0,0,0,0,0,0],"id":9,"left_children":[1,3,5,-1,-1,-1,-1],"loss_changes":[4.888264E3,6.718259E2,1.2078845E2,0E0,0E0,0E0,0E0],"parents":[2147483647,0,0,1,1,2,2],"right_children":[2,4,6,-1,-1,-1,-1],"split_conditions":[-3.997012E4,1.6664877E4,6.054827E4,-3.0672891E-2,1.1065012E-1,-3.0997455E-2,1.04694806E-1],"split_indices":[13,4,4,0,0,0,0],"split_type":[0,0,0,0,0,0,0],"sum_hessian":[4.1390483E3,9.82883E2,3.1561653E3,9.243281E1,8.904502E2,3.1406284E3,1.5536858E1],"tree_param":{"num_deleted":"0","num_feature":"20","num_nodes":"7","size_leaf_vector":"1"}},{"base_weights":[6.733542E-3,5.9009975E-1,-6.111901E-1,-6.0681856E-1,1.2066863E0,4.611163E-1,-3.0750057E-2,-6.128445E-1,6.469274E-2,7.6732105E-1,1.8341872E0,7.922792E-2,-2.4536997E-2,-3.0716866E-2,-1.659975E-2,7.919926E-2,-1.3770523E-2,1.0031199E-1,6.980195E-2],"categories":[],"categories_nodes":[],"categories_segments":[],"categories_sizes":[],"default_left":[0,0,0,0,0,0,0,0,0,0,0,0,0,0,0,0,0,0,0],"id":10,"left_children":[1,3,5,7,9,11,-1,13,-1,15,17,-1,-1,-1,-1,-1,-1,-1,-1],"loss_changes":[1.4891177E3,1.568917E3,8.481628E0,9.075195E0,3.853407E2,8.985962E0,0E0,9.857178E-2,0E0,7.04501E2,4.0694824E1,0E0,0E0,0E0,0E0,0E0,0E0,0E0,0E0],"parents":[2147483647,0,0,1,1,2,2,3,3,4,4,5,5,7,7,9,9,10,10],"right_children":[2,4,6,8,10,12,-1,14,-1,16,18,-1,-1,-1,-1,-1,-1,-1,-1],"split_conditions":[2.6218326E4,1.8826451E4,1.830031E1,1.997272E4,2.053998E4,3.0993695E4,-3.0750057E-2,1.8820531E4,6.469274E-2,2.0717436E4,2.6898087E2,7.922792E-2,-2.4536997E-2,-3.0716866E-2,-1.659975E-2,7.919926E-2,-1.3770523E-2,1.0031199E-1,6.980195E-2],"split_indices":[4,4,0,6,6,4,0,8,0,9,14,0,0,0,0,0,0,0,0],"split_type":[0,0,0,0,0,0,0,0,0,0,0,0,0,0,0,0,0,0,0],"sum_hessian":[4.128978E3,2.1239011E3,2.0050768E3,7.2212573E2,1.4017754E3,6.6759863E0,1.9984009E3,7.205189E2,1.6068119E0,8.257926E2,5.759828E2,2.757135E0,3.9188511E0,7.1552826E2,4.99061E0,4.6280557E2,3.62987E2,4.1100854E2,1.6497424E2],"tree_param":{"num_deleted":"0","num_feature":"20","num_nodes":"19","size_leaf_vector":"1"}},{"base_weights":[1.6556426E-3,9.889283E-2,-1.1210234E-1,-3.2236946E-1,5.233836E-1,-3.077167E-2,-1.6495939E-1,1.570213E-1,1.4771737E0,7.5418554E-2,-2.225942E-2,-3.0624164E-2,2.3150109E-2,-3.0331839E-2,9.9014044E-2],"categories":[],"categories_nodes":[],"categories_segments":[],"categories_sizes":[],"default_left":[0,0,0,0,0,0,0,0,0,0,0,0,0,0,0],"id":11,"left_children":[1,-1,3,5,7,-1,9,11,13,-1,-1,-1,-1,-1,-1],"loss_changes":[9.250485E2,0E0,5.2007336E2,1.3479343E2,3.3791763E2,0E0,8.9336E2,1.6516585E2,2.8262347E2,0E0,0E0,0E0,0E0,0E0,0E0],"parents":[2147483647,0,0,2,2,3,3,4,4,6,6,7,7,8,8],"right_children":[2,-1,4,6,8,-1,10,12,14,-1,-1,-1,-1,-1,-1],"split_conditions":[1.6721115E4,9.889283E-2,5.4298724E2,2.1262289E5,7.500219E5,-3.077167E-2,4.7445444E5,-8.611855E3,4.153929E4,7.5418554E-2,-2.225942E-2,-3.0624164E-2,2.3150109E-2,-3.0331839E-2,9.9014044E-2],"split_indices":[6,0,12,13,13,0,13,13,7,0,0,0,0,0,0],"split_type":[0,0,0,0,0,0,0,0,0,0,0,0,0,0,0],"sum_hessian":[4.1128403E3,2.2297295E2,3.8898674E3,2.9231572E3,9.667101E2,1.02042804E3,1.9027291E3,6.992748E2,2.674353E2,2.7230896E2,1.6304202E3,1.9866211E2,5.006127E2,5.1971146E1,2.1546414E2],"tree_param":{"num_deleted":"0","num_feature":"20","num_nodes":"15","size_leaf_vector":"1"}},{"base_weights":[-5.9099933E-3,-3.0751158E-2,5.4510826E-1,1.6228722E0,-6.1062753E-1,3.7309602E-1,1.7586657E0,-3.0742232E-2,6.739566E-2,4.8947614E-2,-3.0558167E-2,8.8827275E-2,-2.8520212E-2],"categories":[],"categories_nodes":[],"categories_segments":[],"categories_sizes":[],"default_left":[0,0,0,0,0,0,0,0,0,0,0,0,0],"id":12,"left_children":[1,-1,3,5,7,9,11,-1,-1,-1,-1,-1,-1],"loss_changes":[1.3745869E3,0E0,2.6794343E3,1.8822559E2,9.404877E0,6.6399475E1,4.280713E1,0E0,0E0,0E0,0E0,0E0,0E0],"parents":[2147483647,0,0,2,2,3,3,4,4,5,5,6,6],"right_children":[2,-1,4,6,8,10,12,-1,-1,-1,-1,-1,-1],"split_conditions":[3.1487643E4,-3.0751158E-2,3.982336E4,6.216341E5,4.209057E1,3.368409E4,9.356821E2,-3.0742232E-2,6.739566E-2,4.8947614E-2,-3.0558167E-2,8.8827275E-2,-2.8520212E-2],"split_indices":[6,0,7,13,10,4,1,0,0,0,0,0,0],"split_type":[0,0,0,0,0,0,0,0,0,0,0,0,0],"sum_hessian":[4.0935137E3,1.9442079E3,2.1493057E3,1.11196E3,1.0373457E3,1.09345474E2,1.0026145E3,1.0358015E3,1.5442188E0,6.768665E1,4.1658813E1,9.9521173E2,7.402771E0],"tree_param":{"num_deleted":"0","num_feature":"20","num_nodes":"13","size_leaf_vector":"1"}},{"base_weights":[-2.0301025E-2,9.1759E-1,-3.0760026E-2,1.8017575E0,3.3260474E-1,1.9614017E0,9.9903864E-1,-4.1456094E-1,1.8026482E0,-1.9773824E-2,9.848292E-2,-3.0626703E-2,1.03159286E-1,3.1351767E-2,-2.9852211E-2,1.021919E-1,-3.0874342E-2],"categories":[],"categories_nodes":[],"categories_segments":[],"categories_sizes":[],"default_left":[0,0,0,0,0,0,0,0,0,0,0,0,0,0,0,0,0],"id":13,"left_children":[1,3,-1,5,7,9,11,13,15,-1,-1,-1,-1,-1,-1,-1,-1],"loss_changes":[2.2919788E3,8.2402686E2,0E0,7.93645E1,1.0559773E3,1.1059448E1,1.8529617E2,1.21601555E2,1.9034827E2,0E0,0E0,0E0,0E0,0E0,0E0,0E0,0E0],"parents":[2147483647,0,0,1,1,3,3,4,4,5,5,6,6,7,7,8,8],"right_children":[2,4,-1,6,8,10,12,14,16,-1,-1,-1,-1,-1,-1,-1,-1],"split_conditions":[2.053998E4,-3.0314611E-2,-3.0760026E-2,1.8038166E4,2.08808E4,1.5957767E2,2.045907E4,-1.8766401E-2,1.9333543E2,-1.9773824E-2,9.848292E-2,-3.0626703E-2,1.03159286E-1,3.1351767E-2,-2.9852211E-2,1.021919E-1,-3.0874342E-2],"split_indices":[6,16,0,7,9,14,9,16,14,0,0,0,0,0,0,0,0],"split_type":[0,0,0,0,0,0,0,0,0,0,0,0,0,0,0,0,0],"sum_hessian":[4.1058384E3,1.5933281E3,2.51251E3,6.3360114E2,9.5972705E2,5.2729047E2,1.0631064E2,6.3678973E2,3.2293735E2,1.6770594E0,5.256134E2,4.244905E1,6.3861588E1,9.456814E1,5.4222156E2,2.9381165E2,2.9125687E1],"tree_param":{"num_deleted":"0","num_feature":"20","num_nodes":"17","size_leaf_vector":"1"}},{"base_weights":[-1.4907809E-3,1.7812345E0,-6.025291E-1,-3.0389607E-2,9.9351235E-2,-3.0759383E-2,9.410975E-2],"categories":[],"categories_nodes":[],"categories_segments":[],"categories_sizes":[],"default_left":[0,0,0,0,0,0,0],"id":14,"left_children":[1,3,5,-1,-1,-1,-1],"loss_changes":[4.40096E3,5.1035767E2,9.777234E1,0E0,0E0,0E0,0E0],"parents":[2147483647,0,0,1,1,2,2],"right_children":[2,4,6,-1,-1,-1,-1],"split_conditions":[-3.997012E4,1.6664877E4,6.054827E4,-3.0389607E-2,9.9351235E-2,-3.0759383E-2,9.410975E-2],"split_indices":[13,4,4,0,0,0,0],"split_type":[0,0,0,0,0,0,0],"sum_hessian":[4.10534E3,1.0346188E3,3.0707212E3,8.189879E1,9.527199E2,3.0559053E3,1.4815997E1],"tree_param":{"num_deleted":"0","num_feature":"20","num_nodes":"7","size_leaf_vector":"1"}},{"base_weights":[-1.7561796E-3,5.518112E-1,-6.0776466E-1,-3.060597E-2,1.2879169E0,1.1287998E-1,-3.0526165E-2,7.08631E-1,9.17506E-2,6.825928E-2,-2.5713399E-2,9.6448675E-2,5.6334427E-3],"categories":[],"categories_nodes":[],"categories_segments":[],"categories_sizes":[],"default_left":[0,0,0,0,0,0,0,0,0,0,0,0,0],"id":15,"left_children":[1,3,5,-1,7,9,-1,11,-1,-1,-1,-1,-1],"loss_changes":[1.3803186E3,1.8431602E3,3.973877E0,0E0,4.162771E2,7.247773E0,0E0,4.664027E2,0E0,0E0,0E0,0E0,0E0],"parents":[2147483647,0,0,1,1,2,2,4,4,5,5,7,7],"right_children":[2,4,6,-1,8,10,-1,12,-1,-1,-1,-1,-1],"split_conditions":[2.6218326E4,4.5271647E5,1.830031E1,-3.060597E-2,6.755355E5,3.0993695E4,-3.0526165E-2,2.0717436E4,9.17506E-2,6.825928E-2,-2.5713399E-2,9.6448675E-2,5.6334427E-3],"split_indices":[4,13,0,0,13,4,0,9,0,0,0,0,0],"split_type":[0,0,0,0,0,0,0,0,0,0,0,0,0],"sum_hessian":[4.112624E3,2.1493542E3,1.9632699E3,8.3276086E2,1.3165934E3,7.3344297E0,1.9559354E3,6.40598E2,6.759953E2,2.0547118E0,5.279718E0,2.0945781E2,4.3114023E2],"tree_param":{"num_deleted":"0","num_feature":"20","num_nodes":"13","size_leaf_vector":"1"}},{"base_weights":[-3.224226E-3,8.993654E-2,-1.1436201E-1,-3.4623602E-1,5.2212316E-1,7.844333E-2,-4.487356E-1,1.3001841E-1,1.4451602E0,-3.0457059E-2,8.643481E-2,-2.6189825E-2,-5.2276826E-3,-3.0357718E-2,1.9567018E-2,-3.009737E-2,9.241271E-2],"categories":[],"categories_nodes":[],"categories_segments":[],"categories_sizes":[],"default_left":[0,0,0,0,0,0,0,0,0,0,0,0,0,0,0,0,0],"id":16,"left_children":[1,-1,3,5,7,9,11,13,15,-1,-1,-1,-1,-1,-1,-1,-1],"loss_changes":[8.275202E2,0E0,5.7458575E2,1.24240875E2,3.760983E2,6.315234E2,5.9332184E1,1.4101807E2,2.5681512E2,0E0,0E0,0E0,0E0,0E0,0E0,0E0,0E0],"parents":[2147483647,0,0,2,2,3,3,4,4,5,5,6,6,7,7,8,8],"right_children":[2,-1,4,6,8,10,12,14,16,-1,-1,-1,-1,-1,-1,-1,-1],"split_conditions":[1.6721115E4,8.993654E-2,5.292204E2,1.9132258E4,7.500219E5,2.1262289E5,3.9608534E-2,-8.611855E3,4.153929E4,-3.0457059E-2,8.643481E-2,-2.6189825E-2,-5.2276826E-3,-3.0357718E-2,1.9567018E-2,-3.009737E-2,9.241271E-2],"split_indices":[6,0,14,6,13,13,16,13,7,0,0,0,0,0,0,0,0],"split_type":[0,0,0,0,0,0,0,0,0,0,0,0,0,0,0,0,0],"sum_hessian":[4.1300933E3,2.3904845E2,3.891045E3,2.852371E3,1.0386738E3,5.5463306E2,2.297738E3,7.297977E2,3.0887613E2,3.9195453E2,1.6267854E2,1.8859244E3,4.118137E2,1.906533E2,5.391444E2,5.073348E1,2.5814264E2],"tree_param":{"num_deleted":"0","num_feature":"20","num_nodes":"17","size_leaf_vector":"1"}},{"base_weights":[-3.2636314E-3,-3.0516282E-2,5.388662E-1,1.5026389E0,-6.038952E-1,9.77134E-2,1.6097403E0,7.4999206E-2,-3.052114E-2,5.0337147E-2,-2.6360333E-2,7.223378E-2,9.339313E-2],"categories":[],"categories_nodes":[],"categories_segments":[],"categories_sizes":[],"default_left":[0,0,0,0,0,0,0,0,0,0,0,0,0],"id":17,"left_children":[1,-1,3,5,7,9,11,-1,-1,-1,-1,-1,-1],"loss_changes":[1.3623663E3,0E0,2.4093083E3,1.7838428E2,1.4665283E1,4.8880623E1,4.427368E1,0E0,0E0,0E0,0E0,0E0,0E0],"parents":[2147483647,0,0,2,2,3,3,4,4,5,5,6,6],"right_children":[2,-1,4,6,8,10,12,-1,-1,-1,-1,-1,-1],"split_conditions":[3.1487643E4,-3.0516282E-2,3.982336E4,6.1725694E5,-2.3905507E-1,3.1240543E4,7.071161E5,7.4999206E-2,-3.052114E-2,5.0337147E-2,-2.6360333E-2,7.223378E-2,9.339313E-2],"split_indices":[6,0,7,13,16,7,13,0,0,0,0,0,0],"split_type":[0,0,0,0,0,0,0,0,0,0,0,0,0],"sum_hessian":[4.137592E3,1.9518446E3,2.1857473E3,1.1855625E3,1.0001848E3,8.411238E1,1.1014501E3,2.3859828E0,9.977988E2,3.4017864E1,5.0094517E1,6.7585144E2,4.2559863E2],"tree_param":{"num_deleted":"0","num_feature":"20","num_nodes":"13","size_leaf_vector":"1"}},{"base_weights":[6.9962335E-3,8.9143E-1,-3.053235E-2,1.7268211E0,3.609639E-1,1.7858839E0,1.1715567E0,-3.6442977E-1,1.6556301E0,-1.9251335E-2,8.959878E-2,-2.9812405E-2,1.0036991E-1,-2.9728696E-2,3.609811E-2,8.7134756E-2,-3.0043323E-2],"categories":[],"categories_nodes":[],"categories_segments":[],"categories_sizes":[],"default_left":[0,0,0,0,0,0,0,0,0,0,0,0,0,0,0,0,0],"id":18,"left_children":[1,3,-1,5,7,9,11,13,15,-1,-1,-1,-1,-1,-1,-1,-1],"loss_changes":[2.2756677E3,7.58475E2,0E0,1.9717285E1,9.857262E2,8.613647E0,9.996434E1,1.68723E2,7.508508E1,0E0,0E0,0E0,0E0,0E0,0E0,0E0,0E0],"parents":[2147483647,0,0,1,1,3,3,4,4,5,5,6,6,7,7,8,8],"right_children":[2,4,-1,6,8,10,12,14,16,-1,-1,-1,-1,-1,-1,-1,-1],"split_conditions":[2.053998E4,-3.7336983E-2,-3.053235E-2,1.8207205E4,2.0767225E4,-1.2883984E2,2.0717436E4,1.3514825E0,2.1278037E4,-1.9251335E-2,8.959878E-2,-2.9812405E-2,1.0036991E-1,-2.9728696E-2,3.609811E-2,8.7134756E-2,-3.0043323E-2],"split_indices":[6,16,0,7,9,2,9,15,4,0,0,0,0,0,0,0,0],"split_type":[0,0,0,0,0,0,0,0,0,0,0,0,0,0,0,0,0],"sum_hessian":[4.1638745E3,1.711973E3,2.4519016E3,6.6401324E2,1.0479597E3,5.981703E2,6.584295E1,6.7210297E2,3.7585675E2,1.4997398E0,5.9667053E2,2.1229399E1,4.4613544E1,5.54986E2,1.17116974E2,3.6211264E2,1.3744111E1],"tree_param":{"num_deleted":"0","num_feature":"20","num_nodes":"17","size_leaf_vector":"1"}},{"base_weights":[2.758287E-3,1.631346E0,-5.963868E-1,-3.020055E-2,9.0286784E-2,-3.052778E-2,8.666269E-2],"categories":[],"categories_nodes":[],"categories_segments":[],"categories_sizes":[],"default_left":[0,0,0,0,0,0,0],"id":19,"left_children":[1,3,5,-1,-1,-1,-1],"loss_changes":[4.0350574E3,4.346443E2,1.0084595E2,0E0,0E0,0E0,0E0],"parents":[2147483647,0,0,1,1,2,2],"right_children":[2,4,6,-1,-1,-1,-1],"split_conditions":[-3.997012E4,1.6664877E4,6.054827E4,-3.020055E-2,9.0286784E-2,-3.052778E-2,8.666269E-2],"split_indices":[13,4,4,0,0,0,0],"split_type":[0,0,0,0,0,0,0],"sum_hessian":[4.133299E3,1.1111805E3,3.0221182E3,8.023614E1,1.0309443E3,3.0045823E3,1.7535856E1],"tree_param":{"num_deleted":"0","num_feature":"20","num_nodes":"7","size_leaf_vector":"1"}},{"base_weights":[-3.4889604E-3,5.237721E-1,-6.027744E-1,-3.0383348E-2,1.1748405E0,3.6441278E-1,-3.0307177E-2,6.2179726E-1,8.439663E-2,6.7964315E-2,-2.3797834E-2,1.1231814E-2,9.660314E-2],"categories":[],"categories_nodes":[],"categories_segments":[],"categories_sizes":[],"default_left":[0,0,0,0,0,0,0,0,0,0,0,0,0],"id":20,"left_children":[1,3,5,-1,7,9,-1,11,-1,-1,-1,-1,-1],"loss_changes":[1.292544E3,1.6036967E3,6.459656E0,0E0,3.9099255E2,6.725608E0,0E0,3.4639865E2,0E0,0E0,0E0,0E0,0E0],"parents":[2147483647,0,0,1,1,2,2,4,4,5,5,7,7],"right_children":[2,4,6,-1,8,10,-1,12,-1,-1,-1,-1,-1],"split_conditions":[2.6218326E4,4.5271647E5,1.830031E1,-3.0383348E-2,6.755355E5,3.0993695E4,-3.0307177E-2,1.9484526E2,8.439663E-2,6.7964315E-2,-2.3797834E-2,1.1231814E-2,9.660314E-2],"split_indices":[4,13,0,0,13,4,0,14,0,0,0,0,0],"split_type":[0,0,0,0,0,0,0,0,0,0,0,0,0],"sum_hessian":[4.0885903E3,2.1750615E3,1.9135287E3,7.9447473E2,1.3805869E3,6.2705746E0,1.9072582E3,6.654908E2,7.150961E2,2.588585E0,3.6819897E0,5.1159125E2,1.538995E2],"tree_param":{"num_deleted":"0","num_feature":"20","num_nodes":"13","size_leaf_vector":"1"}},{"base_weights":[-8.4919913E-4,1.6189601E0,-1.0747868E-1,8.2683645E-2,-2.4084149E-2,-3.3214083E-1,4.9374396E-1,-4.6047437E-1,1.0881595E-4,1.2565741E-1,1.3926085E0,-3.032626E-2,-1.8436199E-2,8.4953874E-2,-1.1204294E-2,-3.0129274E-2,1.8852463E-2,-2.969583E-2,8.466545E-2],"categories":[],"categories_nodes":[],"categories_segments":[],"categories_sizes":[],"default_left":[0,0,0,0,0,0,0,0,0,0,0,0,0,0,0,0,0,0,0],"id":21,"left_children":[1,3,5,-1,-1,7,9,11,13,15,17,-1,-1,-1,-1,-1,-1,-1,-1],"loss_changes":[7.0615344E2,1.9209534E1,5.182895E2,0E0,0E0,1.1909219E2,3.4520068E2,2.677533E1,2.9719098E2,1.3601276E2,1.8210791E2,0E0,0E0,0E0,0E0,0E0,0E0,0E0,0E0],"parents":[2147483647,0,0,1,1,2,2,5,5,6,6,7,7,8,8,9,9,10,10],"right_children":[2,4,6,-1,-1,8,10,12,14,16,18,-1,-1,-1,-1,-1,-1,-1,-1],"split_conditions":[1.6843795E4,1.6399238E4,5.292204E2,8.2683645E-2,-2.4084149E-2,1.777682E-2,7.500219E5,2.1262289E5,1.9430686E4,-8.611855E3,4.153929E4,-3.032626E-2,-1.8436199E-2,8.4953874E-2,-1.1204294E-2,-3.0129274E-2,1.8852463E-2,-2.969583E-2,8.466545E-2],"split_indices":[9,4,14,0,0,16,13,13,4,13,7,0,0,0,0,0,0,0,0],"split_type":[0,0,0,0,0,0,0,0,0,0,0,0,0,0,0,0,0,0,0],"sum_hessian":[4.0864346E3,2.5151314E2,3.8349216E3,2.4763382E2,3.879322E0,2.7920488E3,1.0428727E3,2.0138143E3,7.7823456E2,7.4069617E2,3.021765E2,7.748215E2,1.2389928E3,8.9956566E1,6.88278E2,1.8971742E2,5.509787E2,3.9598812E1,2.625777E2],"tree_param":{"num_deleted":"0","num_feature":"20","num_nodes":"19","size_leaf_vector":"1"}},{"base_weights":[6.5963822E-3,-3.0296257E-2,5.218225E-1,1.3833294E0,-5.734431E-1,1.4178951E0,-2.8470397E-1,8.14225E-2,-3.0303631E-2,1.7243076E-2,7.2338715E-2,6.029978E-2,-3.0450497E-2],"categories":[],"categories_nodes":[],"categories_segments":[],"categories_sizes":[],"default_left":[0,0,0,0,0,0,0,0,0,0,0,0,0],"id":22,"left_children":[1,-1,3,5,7,9,11,-1,-1,-1,-1,-1,-1],"loss_changes":[1.2891958E3,0E0,2.094356E3,7.202466E1,7.1220856E1,3.721826E1,1.3328854E1,0E0,0E0,0E0,0E0,0E0,0E0],"parents":[2147483647,0,0,2,2,3,3,4,4,5,5,6,6],"right_children":[2,-1,4,6,8,10,12,-1,-1,-1,-1,-1,-1],"split_conditions":[3.1487643E4,-3.0296257E-2,4.1656137E4,8.470593E-2,-2.1329577E-1,7.4318933E-1,5.0549554E2,8.14225E-2,-3.0303631E-2,1.7243076E-2,7.2338715E-2,6.029978E-2,-3.0450497E-2],"split_indices":[6,0,8,16,16,15,14,0,0,0,0,0,0],"split_type":[0,0,0,0,0,0,0,0,0,0,0,0,0],"sum_hessian":[4.08307E3,1.865323E3,2.217747E3,1.2411938E3,9.7655316E2,1.2161423E3,2.5051464E1,1.3545896E1,9.6300726E2,3.2212097E1,1.1839303E3,3.9904282E0,2.1061037E1],"tree_param":{"num_deleted":"0","num_feature":"20","num_nodes":"13","size_leaf_vector":"1"}},{"base_weights":[-1.0905349E-2,8.178381E-1,-3.0320365E-2,1.5272497E0,2.9139948E-1,1.5938742E0,-2.9430417E-2,-4.4215113E-1,1.5023141E0,7.5878E-2,9.000265E-2,8.8481665E-2,-2.840139E-2,8.5323416E-2,-3.1074628E-2],"categories":[],"categories_nodes":[],"categories_segments":[],"categories_sizes":[],"default_left":[0,0,0,0,0,0,0,0,0,0,0,0,0,0,0],"id":23,"left_children":[1,3,-1,5,7,9,-1,11,13,-1,-1,-1,-1,-1,-1],"loss_changes":[2.0103475E3,6.356378E2,0E0,1.0317993E2,8.702098E2,8.33606E0,0E0,1.7094693E2,1.612815E2,0E0,0E0,0E0,0E0,0E0,0E0],"parents":[2147483647,0,0,1,1,3,3,4,4,5,5,7,7,8,8],"right_children":[2,4,-1,6,8,10,-1,12,14,-1,-1,-1,-1,-1,-1],"split_conditions":[2.053998E4,-3.0314611E-2,-3.0320365E-2,5.990304E5,2.0767225E4,1.4896054E0,-2.9430417E-2,-5.7473945E4,6.755355E5,7.5878E-2,9.000265E-2,8.8481665E-2,-2.840139E-2,8.5323416E-2,-3.1074628E-2],"split_indices":[6,16,0,13,9,15,0,13,13,0,0,0,0,0,0],"split_type":[0,0,0,0,0,0,0,0,0,0,0,0,0,0,0],"sum_hessian":[4.0714963E3,1.7022079E3,2.3692886E3,7.242845E2,9.7792334E2,7.024135E2,2.1871016E1,6.0939655E2,3.6852676E2,5.187616E2,1.8365192E2,3.2111176E1,5.772854E2,3.363875E2,3.213928E1],"tree_param":{"num_deleted":"0","num_feature":"20","num_nodes":"15","size_leaf_vector":"1"}},{"base_weights":[-5.2251975E-4,1.5041682E0,-5.922212E-1,-3.0033765E-2,8.2933895E-2,-3.0308196E-2,7.986484E-2],"categories":[],"categories_nodes":[],"categories_segments":[],"categories_sizes":[],"default_left":[0,0,0,0,0,0,0],"id":24,"left_children":[1,3,5,-1,-1,-1,-1],"loss_changes":[3.643444E3,3.7663354E2,9.0635864E1,0E0,0E0,0E0,0E0],"parents":[2147483647,0,0,1,1,2,2],"right_children":[2,4,6,-1,-1,-1,-1],"split_conditions":[-3.997012E4,1.6664877E4,6.054827E4,-3.0033765E-2,8.2933895E-2,-3.0308196E-2,7.986484E-2],"split_indices":[13,4,4,0,0,0,0],"split_type":[0,0,0,0,0,0,0],"sum_hessian":[4.0902695E3,1.1540293E3,2.9362402E3,7.872274E1,1.0753065E3,2.9183794E3,1.786095E1],"tree_param":{"num_deleted":"0","num_feature":"20","num_nodes":"7","size_leaf_vector":"1"}},{"base_weights":[5.2799904E-3,5.269338E-1,-5.990539E-1,-3.019588E-2,1.1467959E0,-6.01343E-1,-4.1213273E-3,6.663834E-1,7.814793E-2,-3.0095953E-2,-2.9684374E-1,5.6912947E-2,-2.5319306E-2,8.275181E-2,3.3458888E-3,9.636673E-3,-2.3146255E-2],"categories":[],"categories_nodes":[],"categories_segments":[],"categories_sizes":[],"default_left":[0,0,0,0,0,0,0,0,0,0,0,0,0,0,0,0,0],"id":25,"left_children":[1,3,5,-1,7,9,11,13,-1,-1,15,-1,-1,-1,-1,-1,-1],"loss_changes":[1.2651401E3,1.510502E3,2.529541E0,0E0,2.7718408E2,1.461792E-1,5.2429423E0,3.8375073E2,0E0,0E0,5.3402215E-1,0E0,0E0,0E0,0E0,0E0,0E0],"parents":[2147483647,0,0,1,1,2,2,4,4,5,5,6,6,7,7,10,10],"right_children":[2,4,6,-1,8,10,12,14,-1,-1,16,-1,-1,-1,-1,-1,-1],"split_conditions":[2.6218326E4,4.5271647E5,2.372844E0,-3.019588E-2,6.755355E5,2.0857563E0,3.6512195E4,2.0767225E4,7.814793E-2,-3.0095953E-2,7E0,5.6912947E-2,-2.5319306E-2,8.275181E-2,3.3458888E-3,9.636673E-3,-2.3146255E-2],"split_indices":[4,13,15,0,13,15,9,9,0,0,18,0,0,0,0,0,0],"split_type":[0,0,0,0,0,0,0,0,0,0,0,0,0,0,0,0,0],"sum_hessian":[4.011092E3,2.15288E3,1.8582123E3,7.622633E2,1.3906166E3,1.8510792E3,7.133022E0,6.4668896E2,7.439277E2,1.8466088E3,4.470457E0,1.7916762E0,5.3413453E0,2.4344043E2,4.032485E2,1.091738E0,3.378719E0],"tree_param":{"num_deleted":"0","num_feature":"20","num_nodes":"17","size_leaf_vector":"1"}},{"base_weights":[-8.319789E-3,1.5044842E0,-1.1606413E-1,-2.3788722E-2,7.67005E-2,-3.408167E-1,4.7331178E-1,9.94972E-2,-4.396724E-1,1.2945588E-1,1.2543848E0,-3.0029207E-2,7.617615E-2,-2.6211625E-2,-3.8985105E-3,4.9905427E-4,8.039377E-2,-2.7336895E-2,7.662573E-2],"categories":[],"categories_nodes":[],"categories_segments":[],"categories_sizes":[],"default_left":[0,0,0,0,0,0,0,0,0,0,0,0,0,0,0,0,0,0,0],"id":26,"left_children":[1,3,5,-1,-1,7,9,11,13,15,17,-1,-1,-1,-1,-1,-1,-1,-1],"loss_changes":[6.7005115E2,1.6710205E1,5.084851E2,0E0,0E0,1.20991516E2,2.8447687E2,5.096258E2,6.936926E1,1.3015811E2,1.630617E2,0E0,0E0,0E0,0E0,0E0,0E0,0E0,0E0],"parents":[2147483647,0,0,1,1,2,2,5,5,6,6,7,7,8,8,9,9,10,10],"right_children":[2,4,6,-1,-1,8,10,12,14,16,18,-1,-1,-1,-1,-1,-1,-1,-1],"split_conditions":[1.7062703E4,-1.223984E5,5.292204E2,-2.3788722E-2,7.67005E-2,1.9132258E4,7.500219E5,2.1262289E5,3.7917495E-2,6.997218E-2,-1.314652E-1,-3.0029207E-2,7.617615E-2,-2.6211625E-2,-3.8985105E-3,4.9905427E-4,8.039377E-2,-2.7336895E-2,7.662573E-2],"split_indices":[6,13,14,0,0,6,13,13,16,16,16,0,0,0,0,0,0,0,0],"split_type":[0,0,0,0,0,0,0,0,0,0,0,0,0,0,0,0,0,0,0],"sum_hessian":[4.108771E3,2.723153E2,3.8364558E3,3.7785523E0,2.6853674E2,2.777649E3,1.0588068E3,5.0927536E2,2.2683735E3,7.3597174E2,3.22835E2,3.418117E2,1.6746365E2,1.838186E3,4.3018753E2,6.818745E2,5.409724E1,4.3054626E1,2.7978036E2],"tree_param":{"num_deleted":"0","num_feature":"20","num_nodes":"19","size_leaf_vector":"1"}},{"base_weights":[4.3912516E-3,-3.0089289E-2,4.9271905E-1,1.2963208E0,-5.951248E-1,1.3301891E0,-3.0730304E-1,-3.0090226E-2,6.707996E-2,7.645201E-2,5.810948E-2,5.7012256E-2,-3.0443553E-2],"categories":[],"categories_nodes":[],"categories_segments":[],"categories_sizes":[],"default_left":[0,0,0,0,0,0,0,0,0,0,0,0,0],"id":27,"left_children":[1,-1,3,5,7,9,11,-1,-1,-1,-1,-1,-1],"loss_changes":[1.2083159E3,0E0,1.9770942E3,7.104468E1,1.3241913E1,4.0778076E1,1.2791388E1,0E0,0E0,0E0,0E0,0E0,0E0],"parents":[2147483647,0,0,2,2,3,3,4,4,5,5,6,6],"right_children":[2,-1,4,6,8,10,12,-1,-1,-1,-1,-1,-1],"split_conditions":[3.1487643E4,-3.0089289E-2,3.982336E4,8.470593E-2,2.747335E0,5.148141E2,5.0549554E2,-3.0090226E-2,6.707996E-2,7.645201E-2,5.810948E-2,5.7012256E-2,-3.0443553E-2],"split_indices":[6,0,7,16,15,14,14,0,0,0,0,0,0],"split_type":[0,0,0,0,0,0,0,0,0,0,0,0,0],"sum_hessian":[4.0799666E3,1.8202273E3,2.259739E3,1.2995536E3,9.6018555E2,1.2728418E3,2.6711746E1,9.575722E2,2.6133575E0,5.7918896E2,6.9365283E2,4.125931E0,2.2585817E1],"tree_param":{"num_deleted":"0","num_feature":"20","num_nodes":"13","size_leaf_vector":"1"}},{"base_weights":[4.681603E-4,7.359251E-1,-3.0108307E-2,1.3562851E0,3.2627416E-1,1.5279145E0,-1.02567025E-1,-3.3545265E-1,1.3043967E0,-1.8538507E-2,7.6615885E-2,-3.0054037E-2,5.8116842E-2,8.24995E-2,-2.8286686E-2,-3.0468402E-2,7.4248105E-2],"categories":[],"categories_nodes":[],"categories_segments":[],"categories_sizes":[],"default_left":[0,0,0,0,0,0,0,0,0,0,0,0,0,0,0,0,0],"id":28,"left_children":[1,3,-1,5,7,9,11,13,15,-1,-1,-1,-1,-1,-1,-1,-1],"loss_changes":[1.7970492E3,4.6361798E2,0E0,1.8191846E2,7.131439E2,5.9987793E0,4.9474335E1,3.01589E2,1.5452094E2,0E0,0E0,0E0,0E0,0E0,0E0,0E0,0E0],"parents":[2147483647,0,0,1,1,3,3,4,4,5,5,6,6,7,7,8,8],"right_children":[2,4,-1,6,8,10,12,14,16,-1,-1,-1,-1,-1,-1,-1,-1],"split_conditions":[2.1013637E4,-3.7336983E-2,-3.0108307E-2,4.5271647E5,2.084004E4,-1.3307448E2,2.1016889E4,-3.1684621E4,5.647446E5,-1.8538507E-2,7.6615885E-2,-3.0054037E-2,5.8116842E-2,8.24995E-2,-2.8286686E-2,-3.0468402E-2,7.4248105E-2],"split_indices":[5,16,0,13,9,2,9,13,13,0,0,0,0,0,0,0,0],"split_type":[0,0,0,0,0,0,0,0,0,0,0,0,0,0,0,0,0],"sum_hessian":[4.0526086E3,1.8250681E3,2.2275405E3,7.2493805E2,1.10013E3,6.4858655E2,7.6351494E1,6.565875E2,4.4354248E2,1.3081058E0,6.4727844E2,5.5143562E1,2.1207933E1,6.759867E1,5.889889E2,3.8035854E1,4.0550662E2],"tree_param":{"num_deleted":"0","num_feature":"20","num_nodes":"17","size_leaf_vector":"1"}},{"base_weights":[1.2783594E-3,1.3941747E0,-5.877791E-1,-2.9815067E-2,7.6822534E-2,-3.0102203E-2,7.4274756E-2],"categories":[],"categories_nodes":[],"categories_segments":[],"categories_sizes":[],"default_left":[0,0,0,0,0,0,0],"id":29,"left_children":[1,3,5,-1,-1,-1,-1],"loss_changes":[3.337167E3,3.4325317E2,8.5432434E1,0E0,0E0,0E0,0E0],"parents":[2147483647,0,0,1,1,2,2],"right_children":[2,4,6,-1,-1,-1,-1],"split_conditions":[-3.997012E4,1.6809234E4,5.980087E4,-2.9815067E-2,7.6822534E-2,-3.0102203E-2,7.4274756E-2],"split_indices":[13,5,5,0,0,0,0],"split_type":[0,0,0,0,0,0,0],"sum_hessian":[4.0652566E3,1.2078307E3,2.857426E3,8.0361534E1,1.1274692E3,2.838605E3,1.8821049E1],"tree_param":{"num_deleted":"0","num_feature":"20","num_nodes":"7","size_leaf_vector":"1"}},{"base_weights":[-3.143611E-3,4.8186433E-1,-5.968002E-1,-3.0004373E-2,1.0544118E0,-5.9736836E-1,3.2152086E-3,5.893155E-1,7.301116E-2,-3.0332583E-1,-2.989745E-2,7.796037E-2,4.235119E-3,1.1059016E-2,-2.3503164E-2],"categories":[],"categories_nodes":[],"categories_segments":[],"categories_sizes":[],"default_left":[0,0,0,0,0,0,0,0,0,0,0,0,0,0,0],"id":30,"left_children":[1,3,5,-1,7,9,-1,11,-1,13,-1,-1,-1,-1,-1],"loss_changes":[1.1712035E3,1.3874434E3,7.2546387E-1,0E0,2.7552405E2,1.305542E-1,0E0,3.346379E2,0E0,5.9643084E-1,0E0,0E0,0E0,0E0,0E0],"parents":[2147483647,0,0,1,1,2,2,4,4,5,5,7,7,9,9],"right_children":[2,4,6,-1,8,10,-1,12,-1,14,-1,-1,-1,-1,-1],"split_conditions":[2.4372928E4,4.5271647E5,8.625316E5,-3.0004373E-2,6.6874656E5,-3.4919107E-1,3.2152086E-3,2.0717436E4,7.301116E-2,3.4434848E4,-2.989745E-2,7.796037E-2,4.235119E-3,1.1059016E-2,-2.3503164E-2],"split_indices":[7,13,13,0,13,11,0,9,0,4,0,0,0,0,0],"split_type":[0,0,0,0,0,0,0,0,0,0,0,0,0,0,0],"sum_hessian":[4.0656943E3,2.2377097E3,1.8279846E3,7.7435364E2,1.4633561E3,1.8265114E3,1.4732907E0,6.830134E2,7.803426E2,4.6310453E0,1.8218804E3,2.3302933E2,4.4998413E2,1.038311E0,3.5927346E0],"tree_param":{"num_deleted":"0","num_feature":"20","num_nodes":"15","size_leaf_vector":"1"}},{"base_weights":[1.0954691E-2,7.135656E-2,-9.4923705E-2,-3.2190317E-1,4.35942E-1,9.198386E-2,-4.2985815E-1,6.0970056E-1,-2.9821312E-2,-2.5639674E-2,7.106965E-2,-2.5338797E-2,-1.5951341E-4,7.789481E-3,6.8820104E-2],"categories":[],"categories_nodes":[],"categories_segments":[],"categories_sizes":[],"default_left":[0,0,0,0,0,0,0,0,0,0,0,0,0,0,0],"id":31,"left_children":[1,-1,3,5,7,9,11,13,-1,-1,-1,-1,-1,-1,-1],"loss_changes":[6.0554944E2,0E0,4.5292776E2,1.1767731E2,2.023276E2,4.392964E2,6.85343E1,3.353335E2,0E0,0E0,0E0,0E0,0E0,0E0,0E0],"parents":[2147483647,0,0,2,2,3,3,4,4,5,5,6,6,7,7],"right_children":[2,-1,4,6,8,10,12,14,-1,-1,-1,-1,-1,-1,-1],"split_conditions":[1.6721115E4,7.135656E-2,5.190032E2,1.9132258E4,5.8286566E4,1.7651184E4,4.590332E-2,4.277797E4,-2.9821312E-2,-2.5639674E-2,7.106965E-2,-2.5338797E-2,-1.5951341E-4,7.789481E-3,6.8820104E-2],"split_indices":[6,0,14,6,6,8,16,7,0,0,0,0,0,0,0],"split_type":[0,0,0,0,0,0,0,0,0,0,0,0,0,0,0],"sum_hessian":[4.036641E3,2.7993198E2,3.756709E3,2.6318264E3,1.1248826E3,5.444843E2,2.0873423E3,9.631788E2,1.617038E2,3.7465833E2,1.69826E2,1.768362E3,3.1898016E2,6.0575586E2,3.574229E2],"tree_param":{"num_deleted":"0","num_feature":"20","num_nodes":"15","size_leaf_vector":"1"}},{"base_weights":[4.591783E-3,-2.988717E-2,4.7184953E-1,1.1951779E0,-5.620495E-1,1.2380921E0,1.4651802E-1,7.154562E-2,-2.987866E-2,1.8226048E-2,6.3197136E-2,5.385341E-2,-3.130061E-2],"categories":[],"categories_nodes":[],"categories_segments":[],"categories_sizes":[],"default_left":[0,0,0,0,0,0,0,0,0,0,0,0,0],"id":32,"left_children":[1,-1,3,5,7,9,11,-1,-1,-1,-1,-1,-1],"loss_changes":[1.1298511E3,0E0,1.6913413E3,5.9691895E1,6.6785675E1,2.8400024E1,3.909088E1,0E0,0E0,0E0,0E0,0E0,0E0],"parents":[2147483647,0,0,2,2,3,3,4,4,5,5,6,6],"right_children":[2,-1,4,6,8,10,12,-1,-1,-1,-1,-1,-1],"split_conditions":[3.1487643E4,-2.988717E-2,4.1656137E4,7.2084494E-2,-2.1329577E-1,7.5135416E-1,5.190032E2,7.154562E-2,-2.987866E-2,1.8226048E-2,6.3197136E-2,5.385341E-2,-3.130061E-2],"split_indices":[6,0,8,16,16,15,14,0,0,0,0,0,0],"split_type":[0,0,0,0,0,0,0,0,0,0,0,0,0],"sum_hessian":[4.012452E3,1.7527405E3,2.2597114E3,1.3294535E3,9.302579E2,1.2770139E3,5.2439686E1,1.5603162E1,9.1465466E2,3.7137302E1,1.2398766E3,2.3608223E1,2.8831463E1],"tree_param":{"num_deleted":"0","num_feature":"20","num_nodes":"13","size_leaf_vector":"1"}},{"base_weights":[-2.5226701E-2,7.279215E-1,-2.9914437E-2,1.3170626E0,3.020062E-1,1.411358E0,1.0075002E0,-3.905101E-1,1.332939E0,7.134887E-2,-2.5188912E-2,7.1396E-2,3.1538453E-2,2.826635E-2,-2.8889507E-2,7.448561E-2,-3.151382E-2],"categories":[],"categories_nodes":[],"categories_segments":[],"categories_sizes":[],"default_left":[0,0,0,0,0,0,0,0,0,0,0,0,0,0,0,0,0],"id":33,"left_children":[1,3,-1,5,7,9,11,13,15,-1,-1,-1,-1,-1,-1,-1,-1],"loss_changes":[1.7105352E3,4.293224E2,0E0,1.9544922E1,7.110779E2,1.7113647E1,2.621553E1,1.07037796E2,1.2409503E2,0E0,0E0,0E0,0E0,0E0,0E0,0E0,0E0],"parents":[2147483647,0,0,1,1,3,3,4,4,5,5,6,6,7,7,8,8],"right_children":[2,4,-1,6,8,10,12,14,16,-1,-1,-1,-1,-1,-1,-1,-1],"split_conditions":[2.053998E4,-3.0909132E-2,-2.9914437E-2,-4.6650562E-2,2.0767225E4,2.0356432E4,1.7037346E4,-1.8766401E-2,1.9484526E2,7.134887E-2,-2.5188912E-2,7.1396E-2,3.1538453E-2,2.826635E-2,-2.8889507E-2,7.448561E-2,-3.151382E-2],"split_indices":[6,16,0,16,9,6,5,16,14,0,0,0,0,0,0,0,0],"split_type":[0,0,0,0,0,0,0,0,0,0,0,0,0,0,0,0,0],"sum_hessian":[3.961227E3,1.7115491E3,2.249678E3,7.17284E2,9.942651E2,5.470797E2,1.7020428E2,5.951211E2,3.9914398E2,5.4290686E2,4.1728945E0,7.9119354E1,9.108494E1,9.71696E1,4.9795148E2,3.6985065E2,2.9293339E1],"tree_param":{"num_deleted":"0","num_feature":"20","num_nodes":"17","size_leaf_vector":"1"}},{"base_weights":[-3.5736943E-3,-5.834707E-1,1.0903809E0,-5.9543407E-1,3.3940036E-2,5.501994E-1,7.156133E-2,-2.9879183E-2,7.1663713E-1,7.018434E-2,-2.9125024E-2,1.2321588E0,-1.8454581E-1,-1.5001262E-2,5.395137E-2,7.1251325E-2,1.4554654E-2,3.610054E-2,-1.3928637E-2],"categories":[],"categories_nodes":[],"categories_segments":[],"categories_sizes":[],"default_left":[0,0,0,0,0,0,0,0,0,0,0,0,0,0,0,0,0,0,0],"id":34,"left_children":[1,3,5,7,9,11,-1,-1,13,-1,-1,15,17,-1,-1,-1,-1,-1,-1],"loss_changes":[2.5351633E3,1.9311646E1,2.5412268E2,7.654724E0,4.353576E1,2.6942352E2,0E0,0E0,2.0352867E0,0E0,0E0,5.0180817E1,2.231975E1,0E0,0E0,0E0,0E0,0E0,0E0],"parents":[2147483647,0,0,1,1,2,2,3,3,4,4,5,5,8,8,11,11,12,12],"right_children":[2,4,6,8,10,12,-1,-1,14,-1,-1,16,18,-1,-1,-1,-1,-1,-1],"split_conditions":[3.982336E4,3.972712E4,5.8508402E4,1.0463899E3,3.628974E2,5.292204E2,7.156133E-2,-2.9879183E-2,6.744517E1,7.018434E-2,-2.9125024E-2,5.770254E4,7.4318933E-1,-1.5001262E-2,5.395137E-2,7.1251325E-2,1.4554654E-2,3.610054E-2,-1.3928637E-2],"split_indices":[7,5,6,3,14,14,0,0,0,0,0,6,15,0,0,0,0,0,0],"split_type":[0,0,0,0,0,0,0,0,0,0,0,0,0,0,0,0,0,0,0],"sum_hessian":[3.9942756E3,2.610785E3,1.3834906E3,2.561193E3,4.9591858E1,5.3624646E2,8.4724414E2,2.5575476E3,3.6455438E0,1.4995152E1,3.4596703E1,2.777623E2,2.5848416E2,1.0032065E0,2.6423373E0,2.3009166E2,4.7670647E1,2.3662678E1,2.348215E2],"tree_param":{"num_deleted":"0","num_feature":"20","num_nodes":"19","size_leaf_vector":"1"}},{"base_weights":[-1.1273573E-2,4.5070398E-1,-5.922638E-1,-2.9795144E-2,9.889061E-1,-5.934473E-1,-9.464863E-2,5.563659E-1,6.840643E-2,-2.9701253E-2,6.0303467E-3,2.5285726E-2,-2.2257548E-2,5.537477E-2,-7.987237E-3],"categories":[],"categories_nodes":[],"categories_segments":[],"categories_sizes":[],"default_left":[0,0,0,0,0,0,0,0,0,0,0,0,0,0,0],"id":35,"left_children":[1,3,5,-1,7,9,11,13,-1,-1,-1,-1,-1,-1,-1],"loss_changes":[1.0842065E3,1.2681008E3,9.975586E-1,0E0,2.4305347E2,8.0804443E-1,1.3688157E0,2.7489752E2,0E0,0E0,0E0,0E0,0E0,0E0,0E0],"parents":[2147483647,0,0,1,1,2,2,4,4,5,5,6,6,7,7],"right_children":[2,4,6,-1,8,10,12,14,-1,-1,-1,-1,-1,-1,-1],"split_conditions":[2.4372928E4,4.5271647E5,2.747335E0,-2.9795144E-2,6.755355E5,8.625316E5,4.993144E4,8.676002E-3,6.840643E-2,-2.9701253E-2,6.0303467E-3,2.5285726E-2,-2.2257548E-2,5.537477E-2,-7.987237E-3],"split_indices":[7,13,15,0,13,13,4,16,0,0,0,0,0,0,0],"split_type":[0,0,0,0,0,0,0,0,0,0,0,0,0,0,0],"sum_hessian":[4.0374563E3,2.2492095E3,1.7882468E3,7.637965E2,1.4854128E3,1.7838118E3,4.435078E0,6.950771E2,7.903358E2,1.7825375E3,1.2742064E0,1.4715992E0,2.9634788E0,3.9247546E2,3.026016E2],"tree_param":{"num_deleted":"0","num_feature":"20","num_nodes":"15","size_leaf_vector":"1"}},{"base_weights":[5.3200764E-3,6.689545E-2,-9.546909E-2,-3.0122468E-1,4.1681048E-1,-2.9765626E-2,-1.5232901E-1,-2.9766077E-2,6.5077275E-1,5.500111E-2,-2.2884859E-2,9.279166E-3,7.106131E-2],"categories":[],"categories_nodes":[],"categories_segments":[],"categories_sizes":[],"default_left":[0,0,0,0,0,0,0,0,0,0,0,0,0],"id":36,"left_children":[1,-1,3,5,7,-1,9,-1,11,-1,-1,-1,-1],"loss_changes":[5.4018463E2,0E0,3.9424878E2,1.1674846E2,2.5421118E2,0E0,6.784538E2,0E0,3.1194858E2,0E0,0E0,0E0,0E0],"parents":[2147483647,0,0,2,2,3,3,4,4,6,6,8,8],"right_children":[2,-1,4,6,8,-1,10,-1,12,-1,-1,-1,-1],"split_conditions":[1.6721115E4,6.689545E-2,5.305743E2,2.1262289E5,-1.1320445E4,-2.9765626E-2,5.0532403E5,-2.9766077E-2,3.982336E4,5.500111E-2,-2.2884859E-2,9.279166E-3,7.106131E-2],"split_indices":[6,0,12,13,13,0,13,0,7,0,0,0,0],"split_type":[0,0,0,0,0,0,0,0,0,0,0,0,0],"sum_hessian":[4.0199575E3,2.8180356E2,3.7381538E3,2.667266E3,1.0708877E3,8.95514E2,1.7717522E3,2.0077612E2,8.701116E2,3.4681607E2,1.4249362E3,5.433095E2,3.268021E2],"tree_param":{"num_deleted":"0","num_feature":"20","num_nodes":"13","size_leaf_vector":"1"}},{"base_weights":[-8.289827E-3,-2.9691014E-2,4.4048783E-1,1.1248002E0,-5.8894664E-1,1.6854466E-1,1.225307E0,-2.967878E-2,5.340277E-2,4.4299796E-2,-1.7946614E-2,5.444635E-2,7.192322E-2],"categories":[],"categories_nodes":[],"categories_segments":[],"categories_sizes":[],"default_left":[0,0,0,0,0,0,0,0,0,0,0,0,0],"id":37,"left_children":[1,-1,3,5,7,9,11,-1,-1,-1,-1,-1,-1],"loss_changes":[1.050222E3,0E0,1.5945405E3,1.3045056E2,7.5687866E0,4.9687103E1,3.4190063E1,0E0,0E0,0E0,0E0,0E0,0E0],"parents":[2147483647,0,0,2,2,3,3,4,4,5,5,6,6],"right_children":[2,-1,4,6,8,10,12,-1,-1,-1,-1,-1,-1],"split_conditions":[3.1487643E4,-2.9691014E-2,3.982336E4,6.216341E5,4.209057E1,3.1101197E4,7.071161E5,-2.967878E-2,5.340277E-2,4.4299796E-2,-1.7946614E-2,5.444635E-2,7.192322E-2],"split_indices":[6,0,7,13,10,7,13,0,0,0,0,0,0],"split_type":[0,0,0,0,0,0,0,0,0,0,0,0,0],"sum_hessian":[3.9946938E3,1.733124E3,2.2615696E3,1.3584518E3,9.031179E2,1.2945456E2,1.2289972E3,9.01242E2,1.8759215E0,5.4562004E1,7.4892555E1,7.532008E2,4.757964E2],"tree_param":{"num_deleted":"0","num_feature":"20","num_nodes":"13","size_leaf_vector":"1"}},{"base_weights":[1.7830018E-2,6.682163E-1,-5.8867157E-1,8.3116156E-1,-2.9996632E-2,6.327027E-2,-2.9732658E-2,-2.9514674E-2,9.6564513E-1,6.844077E-2,3.191429E-2],"categories":[],"categories_nodes":[],"categories_segments":[],"categories_sizes":[],"default_left":[0,0,0,0,0,0,0,0,0,0,0],"id":38,"left_children":[1,3,5,7,-1,-1,-1,-1,9,-1,-1],"loss_changes":[1.590181E3,4.0246326E2,2.3887207E1,3.301692E2,0E0,0E0,0E0,0E0,2.0706812E2,0E0,0E0],"parents":[2147483647,0,0,1,1,2,2,3,3,8,8],"right_children":[2,4,6,8,-1,-1,-1,-1,10,-1,-1],"split_conditions":[2.1220252E4,6.755355E5,8.563086E1,1.6062044E4,-2.9996632E-2,6.327027E-2,-2.9732658E-2,-2.9514674E-2,2.1262289E5,6.844077E-2,3.191429E-2],"split_indices":[4,13,12,4,0,0,0,0,13,0,0],"split_type":[0,0,0,0,0,0,0,0,0,0,0],"sum_hessian":[4.029286E3,1.944252E3,2.0850342E3,1.7231836E3,2.2106836E2,6.027947E0,2.079006E3,1.4864604E2,1.5745375E3,7.041441E2,8.703934E2],"tree_param":{"num_deleted":"0","num_feature":"20","num_nodes":"11","size_leaf_vector":"1"}},{"base_weights":[-1.3569439E-3,1.2395666E0,-5.856279E-1,-2.941895E-2,6.75632E-2,-2.971973E-2,6.345304E-2],"categories":[],"categories_nodes":[],"categories_segments":[],"categories_sizes":[],"default_left":[0,0,0,0,0,0,0],"id":39,"left_children":[1,3,5,-1,-1,-1,-1],"loss_changes":[2.8785854E3,2.6029163E2,4.4644104E1,0E0,0E0,0E0,0E0],"parents":[2147483647,0,0,1,1,2,2],"right_children":[2,4,6,-1,-1,-1,-1],"split_conditions":[-3.1684621E4,1.6992957E4,6.054827E4,-2.941895E-2,6.75632E-2,-2.971973E-2,6.345304E-2],"split_indices":[13,4,4,0,0,0,0],"split_type":[0,0,0,0,0,0,0],"sum_hessian":[3.9682664E3,1.2699401E3,2.6983264E3,7.2885765E1,1.1970543E3,2.6863083E3,1.2018063E1],"tree_param":{"num_deleted":"0","num_feature":"20","num_nodes":"7","size_leaf_vector":"1"}},{"base_weights":[-1.5128305E-3,4.4201455E-1,-5.891655E-1,-2.9596612E-2,9.3016386E-1,3.3255853E-2,-2.9518073E-2,5.185489E-1,6.448749E-2,7.080945E-2,9.944154E-4],"categories":[],"categories_nodes":[],"categories_segments":[],"categories_sizes":[],"default_left":[0,0,0,0,0,0,0,0,0,0,0],"id":40,"left_children":[1,3,5,-1,7,-1,-1,9,-1,-1,-1],"loss_changes":[1.0396239E3,1.1478389E3,2.9663086E0,0E0,2.2793384E2,0E0,0E0,3.230719E2,0E0,0E0,0E0],"parents":[2147483647,0,0,1,1,2,2,4,4,7,7],"right_children":[2,4,6,-1,8,-1,-1,10,-1,-1,-1],"split_conditions":[2.4372928E4,4.5271647E5,2.4156137E4,-2.9596612E-2,6.755355E5,3.3255853E-2,-2.9518073E-2,2.0767225E4,6.448749E-2,7.080945E-2,9.944154E-4],"split_indices":[7,13,6,0,13,0,0,9,0,0,0],"split_type":[0,0,0,0,0,0,0,0,0,0,0],"sum_hessian":[3.9867354E3,2.2721167E3,1.7146188E3,7.2861914E2,1.5434976E3,1.1045321E0,1.7135143E3,7.208214E2,8.226761E2,2.5676974E2,4.6405167E2],"tree_param":{"num_deleted":"0","num_feature":"20","num_nodes":"11","size_leaf_vector":"1"}},{"base_weights":[3.4810414E-3,6.30583E-2,-9.11617E-2,-3.1460735E-1,4.1282055E-1,-4.8196217E-1,-7.835566E-2,-2.9541606E-2,6.021847E-1,-2.5462318E-2,-5.345724E-3,5.941951E-2,-1.4293687E-2,7.663646E-3,6.752398E-2],"categories":[],"categories_nodes":[],"categories_segments":[],"categories_sizes":[],"default_left":[0,0,0,0,0,0,0,0,0,0,0,0,0,0,0],"id":41,"left_children":[1,-1,3,5,7,9,11,-1,13,-1,-1,-1,-1,-1,-1],"loss_changes":[4.7760623E2,0E0,4.2036453E2,1.0220639E2,2.1829324E2,1.54331665E1,2.8252487E2,0E0,3.2401624E2,0E0,0E0,0E0,0E0,0E0,0E0],"parents":[2147483647,0,0,2,2,3,3,4,4,5,5,6,6,8,8],"right_children":[2,-1,4,6,8,10,12,-1,14,-1,-1,-1,-1,-1,-1],"split_conditions":[1.6399238E4,6.30583E-2,5.190032E2,3.5595272E-3,-8.611855E3,7.704511E5,1.9388568E4,-2.9541606E-2,3.982336E4,-2.5462318E-2,-5.345724E-3,5.941951E-2,-1.4293687E-2,7.663646E-3,6.752398E-2],"split_indices":[4,0,14,16,13,13,4,0,7,0,0,0,0,0,0],"split_type":[0,0,0,0,0,0,0,0,0,0,0,0,0,0,0],"sum_hessian":[4.010495E3,2.7981216E2,3.730683E3,2.5849812E3,1.145702E3,1.5125139E3,1.0724672E3,1.8151753E2,9.6418445E2,1.409609E3,1.0290484E2,1.5029565E2,9.221716E2,6.034011E2,3.6078336E2],"tree_param":{"num_deleted":"0","num_feature":"20","num_nodes":"15","size_leaf_vector":"1"}},{"base_weights":[-1.2755989E-2,-2.9495984E-2,4.2119804E-1,1.0550965E0,-5.826734E-1,1.2665567E0,8.8065606E-1,-2.9491529E-2,5.9956975E-2,6.515077E-2,-2.8799966E-2,-3.3961054E-2,4.6603605E-2],"categories":[],"categories_nodes":[],"categories_segments":[],"categories_sizes":[],"default_left":[0,0,0,0,0,0,0,0,0,0,0,0,0],"id":42,"left_children":[1,-1,3,5,7,9,11,-1,-1,-1,-1,-1,-1],"loss_changes":[9.904014E2,0E0,1.4369866E3,4.993286E1,1.1856934E1,4.2621338E1,6.1716553E1,0E0,0E0,0E0,0E0,0E0,0E0],"parents":[2147483647,0,0,2,2,3,3,4,4,5,5,6,6],"right_children":[2,-1,4,6,8,10,12,-1,-1,-1,-1,-1,-1],"split_conditions":[3.1487643E4,-2.9495984E-2,3.982336E4,5.148141E2,2.747335E0,3.8853723E4,3.2945656E4,-2.9491529E-2,5.9956975E-2,6.515077E-2,-2.8799966E-2,-3.3961054E-2,4.6603605E-2],"split_indices":[6,0,7,14,15,6,6,0,0,0,0,0,0],"split_type":[0,0,0,0,0,0,0,0,0,0,0,0,0],"sum_hessian":[3.9522976E3,1.6961027E3,2.2561948E3,1.3829039E3,8.73291E2,6.222902E2,7.606137E2,8.704635E2,2.8275075E0,6.10503E2,1.1787193E1,2.3881409E1,7.367323E2],"tree_param":{"num_deleted":"0","num_feature":"20","num_nodes":"13","size_leaf_vector":"1"}},{"base_weights":[4.462911E-3,6.9609267E-1,-2.9554507E-2,1.1877286E0,2.962725E-1,1.2286376E0,-2.8852094E-2,-4.237652E-1,1.2162805E0,5.754594E-2,7.091511E-2,7.0321254E-2,-2.7595973E-2,6.818759E-2,-3.0875972E-2],"categories":[],"categories_nodes":[],"categories_segments":[],"categories_sizes":[],"default_left":[0,0,0,0,0,0,0,0,0,0,0,0,0,0,0],"id":43,"left_children":[1,3,-1,5,7,9,-1,11,13,-1,-1,-1,-1,-1,-1],"loss_changes":[1.6331515E3,3.6024365E2,0E0,6.0084473E1,6.7159485E2,1.0220703E1,0E0,1.342385E2,1.2118988E2,0E0,0E0,0E0,0E0,0E0,0E0],"parents":[2147483647,0,0,1,1,3,3,4,4,5,5,7,7,8,8],"right_children":[2,4,-1,6,8,10,-1,12,14,-1,-1,-1,-1,-1,-1],"split_conditions":[2.053998E4,-3.0909132E-2,-2.9554507E-2,5.922648E5,2.0767225E4,1.4896054E0,-2.8852094E-2,-3.1684621E4,6.6874656E5,5.754594E-2,7.091511E-2,7.0321254E-2,-2.7595973E-2,6.818759E-2,-3.0875972E-2],"split_indices":[6,16,0,13,9,15,0,13,13,0,0,0,0,0,0],"split_type":[0,0,0,0,0,0,0,0,0,0,0,0,0,0,0],"sum_hessian":[3.9629019E3,1.8334752E3,2.1294268E3,8.214341E2,1.01204114E3,8.0312085E2,1.8313227E1,5.680221E2,4.4401904E2,5.7469617E2,2.2842471E2,3.6518696E1,5.315034E2,4.112068E2,3.281225E1],"tree_param":{"num_deleted":"0","num_feature":"20","num_nodes":"15","size_leaf_vector":"1"}},{"base_weights":[-9.311877E-3,1.1478386E0,-5.807393E-1,-2.9252414E-2,6.3621245E-2,-2.9533476E-2,6.0531475E-2],"categories":[],"categories_nodes":[],"categories_segments":[],"categories_sizes":[],"default_left":[0,0,0,0,0,0,0],"id":44,"left_children":[1,3,5,-1,-1,-1,-1],"loss_changes":[2.6339824E3,2.850437E2,4.8150696E1,0E0,0E0,0E0,0E0],"parents":[2147483647,0,0,1,1,2,2],"right_children":[2,4,6,-1,-1,-1,-1],"split_conditions":[-3.1684621E4,1.7230023E4,5.980087E4,-2.9252414E-2,6.3621245E-2,-2.9533476E-2,6.0531475E-2],"split_indices":[13,5,5,0,0,0,0],"split_type":[0,0,0,0,0,0,0],"sum_hessian":[3.9814653E3,1.315846E3,2.6656194E3,8.800986E1,1.227836E3,2.6515908E3,1.402847E1],"tree_param":{"num_deleted":"0","num_feature":"20","num_nodes":"7","size_leaf_vector":"1"}},{"base_weights":[6.825453E-4,4.4194505E-1,-5.842376E-1,-2.9424606E-2,9.1124576E-1,3.5807874E-2,-5.854481E-1,5.4601157E-1,6.104367E-2,-2.9335216E-2,-2.0220075E-2,6.661131E-2,2.7887623E-3,2.553058E-2,-2.0549454E-2],"categories":[],"categories_nodes":[],"categories_segments":[],"categories_sizes":[],"default_left":[0,0,0,0,0,0,0,0,0,0,0,0,0,0,0],"id":45,"left_children":[1,3,5,-1,7,-1,9,11,-1,-1,13,-1,-1,-1,-1],"loss_changes":[1.00559216E3,1.0744583E3,3.0564575E0,0E0,1.7192847E2,0E0,1.177063E0,2.7051447E2,0E0,0E0,1.1949084E0,0E0,0E0,0E0,0E0],"parents":[2147483647,0,0,1,1,2,2,4,4,6,6,7,7,10,10],"right_children":[2,4,6,-1,8,-1,10,12,-1,-1,14,-1,-1,-1,-1],"split_conditions":[2.4372928E4,4.5271647E5,2.4413494E4,-2.9424606E-2,6.755355E5,3.5807874E-2,2.747335E0,2.0767225E4,6.104367E-2,-2.9335216E-2,4.993144E4,6.661131E-2,2.7887623E-3,2.553058E-2,-2.0549454E-2],"split_indices":[7,13,5,0,13,0,15,9,0,0,4,0,0,0,0],"split_type":[0,0,0,0,0,0,0,0,0,0,0,0,0,0,0],"sum_hessian":[3.8940835E3,2.2197517E3,1.6743317E3,6.9452936E2,1.5252224E3,1.0078392E0,1.6733239E3,7.010421E2,8.2418036E2,1.6695751E3,3.748785E0,2.68584E2,4.324581E2,1.4594893E0,2.2892957E0],"tree_param":{"num_deleted":"0","num_feature":"20","num_nodes":"15","size_leaf_vector":"1"}},{"base_weights":[1.0287746E-2,5.97458E-2,-8.778051E-2,-3.1000498E-1,4.041566E-1,8.0690354E-2,-4.1425875E-1,-2.9336203E-2,5.909616E-1,-2.9295117E-2,6.1989762E-2,-2.46969E-2,-8.321314E-4,7.0996704E-3,5.9886135E-2],"categories":[],"categories_nodes":[],"categories_segments":[],"categories_sizes":[],"default_left":[0,0,0,0,0,0,0,0,0,0,0,0,0,0,0],"id":46,"left_children":[1,-1,3,5,7,9,11,-1,13,-1,-1,-1,-1,-1,-1],"loss_changes":[4.5662006E2,0E0,3.9696558E2,1.01905594E2,2.0951039E2,4.0841595E2,6.254483E1,0E0,2.5896695E2,0E0,0E0,0E0,0E0,0E0,0E0],"parents":[2147483647,0,0,2,2,3,3,4,4,5,5,6,6,8,8],"right_children":[2,-1,4,6,8,10,12,-1,14,-1,-1,-1,-1,-1,-1],"split_conditions":[1.6721115E4,5.97458E-2,5.190032E2,1.9132258E4,-8.611855E3,2.1262289E5,4.2824253E-2,-2.9336203E-2,4.109145E4,-2.9295117E-2,6.1989762E-2,-2.46969E-2,-8.321314E-4,7.0996704E-3,5.9886135E-2],"split_indices":[6,0,14,6,13,13,16,0,9,0,0,0,0,0,0],"split_type":[0,0,0,0,0,0,0,0,0,0,0,0,0,0,0],"sum_hessian":[3.9285664E3,2.995025E2,3.629064E3,2.5000688E3,1.128995E3,5.266505E2,1.9734185E3,1.7874208E2,9.50253E2,3.3467557E2,1.9197493E2,1.643776E3,3.2964243E2,5.4684973E2,4.034032E2],"tree_param":{"num_deleted":"0","num_feature":"20","num_nodes":"15","size_leaf_vector":"1"}},{"base_weights":[7.2470624E-3,-2.9323442E-2,4.2626002E-1,1.0195233E0,-5.7876396E-1,1.0455269E0,-4.5953384E-1,-2.9300425E-2,5.7731032E-2,6.0148414E-2,4.585153E-2,3.5206556E-2,-3.0610273E-2],"categories":[],"categories_nodes":[],"categories_segments":[],"categories_sizes":[],"default_left":[0,0,0,0,0,0,0,0,0,0,0,0,0],"id":47,"left_children":[1,-1,3,5,7,9,11,-1,-1,-1,-1,-1,-1],"loss_changes":[9.7677545E2,0E0,1.3730383E3,5.6163208E1,1.1413879E1,2.7686646E1,4.998424E0,0E0,0E0,0E0,0E0,0E0,0E0],"parents":[2147483647,0,0,2,2,3,3,4,4,5,5,6,6],"right_children":[2,-1,4,6,8,10,12,-1,-1,-1,-1,-1,-1],"split_conditions":[3.1487643E4,-2.9323442E-2,3.982336E4,8.470593E-2,2.747335E0,5.1109625E2,5.0549554E2,-2.9300425E-2,5.7731032E-2,6.0148414E-2,4.585153E-2,3.5206556E-2,-3.0610273E-2],"split_indices":[6,0,7,16,15,14,14,0,0,0,0,0,0],"split_type":[0,0,0,0,0,0,0,0,0,0,0,0,0],"sum_hessian":[3.9243416E3,1.623517E3,2.3008245E3,1.4467795E3,8.540449E2,1.422071E3,2.470859E1,8.5114954E2,2.8953733E0,6.3530023E2,7.8677075E2,2.446821E0,2.2261768E1],"tree_param":{"num_deleted":"0","num_feature":"20","num_nodes":"13","size_leaf_vector":"1"}},{"base_weights":[6.0975086E-4,6.218722E-1,-2.9363021E-2,7.6195705E-1,-2.964221E-2,-2.9123956E-2,8.8394344E-1,6.118626E-2,3.0920623E-2],"categories":[],"categories_nodes":[],"categories_segments":[],"categories_sizes":[],"default_left":[0,0,0,0,0,0,0,0,0],"id":48,"left_children":[1,3,-1,5,-1,-1,7,-1,-1],"loss_changes":[1.424419E3,3.2311896E2,0E0,2.794167E2,0E0,0E0,1.3994727E2,0E0,0E0],"parents":[2147483647,0,0,1,1,3,3,6,6],"right_children":[2,4,-1,6,-1,-1,8,-1,-1],"split_conditions":[2.1013637E4,6.650436E5,-2.9363021E-2,1.6025005E4,-2.964221E-2,-2.9123956E-2,2.1262289E5,6.118626E-2,3.0920623E-2],"split_indices":[5,13,0,5,0,0,13,0,0],"split_type":[0,0,0,0,0,0,0,0,0],"sum_hessian":[3.8981494E3,1.8952196E3,2.0029297E3,1.6995902E3,1.9562932E2,1.4106874E2,1.5585215E3,6.8208966E2,8.764319E2],"tree_param":{"num_deleted":"0","num_feature":"20","num_nodes":"9","size_leaf_vector":"1"}},{"base_weights":[-3.18915E-3,-5.7036304E-1,9.2694455E-1,-5.834911E-1,8.8133775E-2,5.347555E-1,1.1865103E0,-2.9312512E-2,8.0591565E-1,6.0009938E-2,-2.8365854E-2,1.0689408E0,-1.04888E-1,9.5049024E-1,5.989896E-2,4.8295327E-2,4.6215616E-3,5.8591943E-2,2.7112886E-2,-1.7117787E-2,1.1654409E-2,5.1206935E-2,-5.7612257E-3],"categories":[],"categories_nodes":[],"categories_segments":[],"categories_sizes":[],"default_left":[0,0,0,0,0,0,0,0,0,0,0,0,0,0,0,0,0,0,0,0,0,0,0],"id":49,"left_children":[1,3,5,7,9,11,13,-1,15,-1,-1,17,19,21,-1,-1,-1,-1,-1,-1,-1,-1,-1],"loss_changes":[2.0285552E3,2.070105E1,1.4764258E2,9.451172E0,3.534726E1,1.9894339E2,1.2315674E0,0E0,4.8866677E-1,0E0,0E0,1.655423E1,2.1406494E1,3.6828728E0,0E0,0E0,0E0,0E0,0E0,0E0,0E0,0E0,0E0],"parents":[2147483647,0,0,1,1,2,2,3,3,4,4,5,5,6,6,8,8,11,11,12,12,13,13],"right_children":[2,4,6,8,10,12,14,-1,16,-1,-1,18,20,22,-1,-1,-1,-1,-1,-1,-1,-1,-1],"split_conditions":[3.982336E4,3.972712E4,5.9054145E4,1.0463899E3,3.628974E2,5.3793646E2,5.9523805E4,-2.9312512E-2,1.6523742E4,6.0009938E-2,-2.8365854E-2,5.7776523E4,5.5940258E4,3.880958E-2,5.989896E-2,4.8295327E-2,4.6215616E-3,5.8591943E-2,2.7112886E-2,-1.7117787E-2,1.1654409E-2,5.1206935E-2,-5.7612257E-3],"split_indices":[7,5,5,3,14,14,5,0,7,0,0,5,5,16,0,0,0,0,0,0,0,0,0],"split_type":[0,0,0,0,0,0,0,0,0,0,0,0,0,0,0,0,0,0,0,0,0,0,0],"sum_hessian":[3.8432532E3,2.387685E3,1.4555681E3,2.3411255E3,4.6559586E1,5.809086E2,8.746594E2,2.3370625E3,4.0629997E0,1.695757E1,2.9602018E1,3.1618338E2,2.6472528E2,4.441911E1,8.302403E2,3.0298111E0,1.0331889E0,2.6348193E2,5.2701435E1,1.554738E2,1.0925146E2,4.1584347E1,2.834761E0],"tree_param":{"num_deleted":"0","num_feature":"20","num_nodes":"23","size_leaf_vector":"1"}},{"base_weights":[-4.2386274E-3,4.0780485E-1,-5.78804E-1,-2.9245142E-2,8.5290766E-1,3.0629453E-1,-2.9161865E-2,4.7067127E-1,5.8198567E-2,5.8977395E-2,-2.3703504E-2,6.2989004E-2,1.11429894E-4],"categories":[],"categories_nodes":[],"categories_segments":[],"categories_sizes":[],"default_left":[0,0,0,0,0,0,0,0,0,0,0,0,0],"id":50,"left_children":[1,3,5,-1,7,9,-1,11,-1,-1,-1,-1,-1],"loss_changes":[9.187328E2,9.990815E2,6.538208E0,0E0,1.8502588E2,6.5104027E0,0E0,2.5947287E2,0E0,0E0,0E0,0E0,0E0],"parents":[2147483647,0,0,1,1,2,2,4,4,5,5,7,7],"right_children":[2,4,6,-1,8,10,-1,12,-1,-1,-1,-1,-1],"split_conditions":[2.6218326E4,4.5271647E5,1.830031E1,-2.9245142E-2,6.650436E5,3.0993695E4,-2.9161865E-2,2.0767225E4,5.8198567E-2,5.8977395E-2,-2.3703504E-2,6.2989004E-2,1.11429894E-4],"split_indices":[4,13,0,0,13,4,0,9,0,0,0,0,0],"split_type":[0,0,0,0,0,0,0,0,0,0,0,0,0],"sum_hessian":[3.878673E3,2.2589683E3,1.619705E3,6.9921124E2,1.559757E3,7.733087E0,1.6119719E3,7.009453E2,8.5881165E2,3.407948E0,4.325139E0,2.6047552E2,4.404698E2],"tree_param":{"num_deleted":"0","num_feature":"20","num_nodes":"13","size_leaf_vector":"1"}},{"base_weights":[1.4338586E-3,5.682378E-2,-9.324295E-2,-3.108061E-1,3.8260758E-1,8.924516E-2,-4.1657007E-1,-2.9168194E-2,5.60424E-1,-2.910173E-2,5.9755336E-2,-2.4243558E-2,4.9149473E-3,7.5068735E-3,6.073087E-2],"categories":[],"categories_nodes":[],"categories_segments":[],"categories_sizes":[],"default_left":[0,0,0,0,0,0,0,0,0,0,0,0,0,0,0],"id":51,"left_children":[1,-1,3,5,7,9,11,-1,13,-1,-1,-1,-1,-1,-1],"loss_changes":[4.1825916E2,0E0,3.7204245E2,1.0437134E2,1.9401346E2,3.8406403E2,6.8637634E1,0E0,2.555632E2,0E0,0E0,0E0,0E0,0E0,0E0],"parents":[2147483647,0,0,2,2,3,3,4,4,5,5,6,6,8,8],"right_children":[2,-1,4,6,8,10,12,-1,14,-1,-1,-1,-1,-1,-1],"split_conditions":[1.6721115E4,5.682378E-2,5.190032E2,1.9132258E4,-8.611855E3,2.1262289E5,5.355061E-2,-2.9168194E-2,3.982336E4,-2.910173E-2,5.9755336E-2,-2.4243558E-2,4.9149473E-3,7.5068735E-3,6.073087E-2],"split_indices":[6,0,14,6,13,13,16,0,7,0,0,0,0,0,0],"split_type":[0,0,0,0,0,0,0,0,0,0,0,0,0,0,0],"sum_hessian":[3.8901677E3,2.986593E2,3.5915083E3,2.4648867E3,1.1266216E3,5.154307E2,1.949456E3,1.747931E2,9.518284E2,3.210318E2,1.9439893E2,1.7211865E3,2.2826952E2,5.857173E2,3.661112E2],"tree_param":{"num_deleted":"0","num_feature":"20","num_nodes":"15","size_leaf_vector":"1"}},{"base_weights":[-2.1001992E-3,-2.9152496E-2,3.9974183E-1,9.548981E-1,-5.750032E-1,4.0598586E-2,1.0438528E0,-2.9119743E-2,5.6170285E-2,3.263827E-2,-1.9135183E-2,4.5849513E-2,6.2229168E-2],"categories":[],"categories_nodes":[],"categories_segments":[],"categories_sizes":[],"default_left":[0,0,0,0,0,0,0,0,0,0,0,0,0],"id":52,"left_children":[1,-1,3,5,7,9,11,-1,-1,-1,-1,-1,-1],"loss_changes":[9.0363416E2,0E0,1.2387258E3,1.18554565E2,1.1085571E1,3.402326E1,3.269861E1,0E0,0E0,0E0,0E0,0E0,0E0],"parents":[2147483647,0,0,2,2,3,3,4,4,5,5,6,6],"right_children":[2,-1,4,6,8,10,12,-1,-1,-1,-1,-1,-1],"split_conditions":[3.1487643E4,-2.9152496E-2,3.982336E4,6.216341E5,2.747335E0,3.1101197E4,7.071161E5,-2.9119743E-2,5.6170285E-2,3.263827E-2,-1.9135183E-2,4.5849513E-2,6.2229168E-2],"split_indices":[6,0,7,13,15,7,13,0,0,0,0,0,0],"split_type":[0,0,0,0,0,0,0,0,0,0,0,0,0],"sum_hessian":[3.8687842E3,1.5816768E3,2.2871074E3,1.4571962E3,8.299112E2,1.2933319E2,1.327863E3,8.2696924E2,2.9419706E0,5.2650116E1,7.668307E1,8.17051E2,5.1081198E2],"tree_param":{"num_deleted":"0","num_feature":"20","num_nodes":"13","size_leaf_vector":"1"}},{"base_weights":[3.2578437E-3,6.392665E-1,-2.9223403E-2,1.060338E0,2.6691943E-1,1.1205678E0,6.8664414E-1,-4.4147494E-1,1.1295384E0,-2.3786074E-2,5.6300808E-2,-3.028886E-2,6.669687E-2,-2.8585086E-2,3.1716354E-2,6.266212E-2,-3.1217936E-2],"categories":[],"categories_nodes":[],"categories_segments":[],"categories_sizes":[],"default_left":[0,0,0,0,0,0,0,0,0,0,0,0,0,0,0,0,0],"id":53,"left_children":[1,3,-1,5,7,9,11,13,15,-1,-1,-1,-1,-1,-1,-1,-1],"loss_changes":[1.4617849E3,2.941839E2,0E0,1.9061401E1,6.1040375E2,7.1209717E0,1.0527774E2,7.724189E1,9.8488525E1,0E0,0E0,0E0,0E0,0E0,0E0,0E0,0E0],"parents":[2147483647,0,0,1,1,3,3,4,4,5,5,6,6,7,7,8,8],"right_children":[2,4,-1,6,8,10,12,14,16,-1,-1,-1,-1,-1,-1,-1,-1],"split_conditions":[2.053998E4,-3.0314611E-2,-2.9223403E-2,1.8038166E4,2.0767225E4,1.5957767E2,2.045907E4,6.3892292E1,1.9484526E2,-2.3786074E-2,5.6300808E-2,-3.028886E-2,6.669687E-2,-2.8585086E-2,3.1716354E-2,6.266212E-2,-3.1217936E-2],"split_indices":[6,16,0,7,9,14,9,2,14,0,0,0,0,0,0,0,0],"split_type":[0,0,0,0,0,0,0,0,0,0,0,0,0,0,0,0,0],"sum_hessian":[3.9086204E3,1.8771603E3,2.03146E3,8.80074E2,9.9708636E2,7.5619617E2,1.2387777E2,5.477526E2,4.4933368E2,2.2785885E0,7.539176E2,4.1360077E1,8.251769E1,4.890244E2,5.8728237E1,4.1999643E2,2.9337246E1],"tree_param":{"num_deleted":"0","num_feature":"20","num_nodes":"17","size_leaf_vector":"1"}},{"base_weights":[-7.3112333E-3,1.0383011E0,-5.754404E-1,-2.8886262E-2,5.7448115E-2,-2.920394E-2,5.4052025E-2],"categories":[],"categories_nodes":[],"categories_segments":[],"categories_sizes":[],"default_left":[0,0,0,0,0,0,0],"id":54,"left_children":[1,3,5,-1,-1,-1,-1],"loss_changes":[2.282108E3,2.425304E2,3.6249634E1,0E0,0E0,0E0,0E0],"parents":[2147483647,0,0,1,1,2,2],"right_children":[2,4,6,-1,-1,-1,-1],"split_conditions":[-3.1684621E4,1.6992957E4,6.054827E4,-2.8886262E-2,5.7448115E-2,-2.920394E-2,5.4052025E-2],"split_indices":[13,4,4,0,0,0,0],"split_type":[0,0,0,0,0,0,0],"sum_hessian":[3.8396494E3,1.3514845E3,2.488165E3,8.6344376E1,1.2651401E3,2.475901E3,1.2264185E1],"tree_param":{"num_deleted":"0","num_feature":"20","num_nodes":"7","size_leaf_vector":"1"}},{"base_weights":[1.2547269E-2,4.3056145E-1,-5.7795185E-1,-2.9071936E-2,8.5596377E-1,-5.792763E-1,-5.6333654E-2,5.9561795E-1,1.2015014E0,-2.8995281E-2,9.122798E-3,2.4603829E-2,-2.0928312E-2,9.628001E-3,5.4719776E-2,7.2132014E-2,5.5071946E-2],"categories":[],"categories_nodes":[],"categories_segments":[],"categories_sizes":[],"default_left":[0,0,0,0,0,0,0,0,0,0,0,0,0,0,0,0,0],"id":55,"left_children":[1,3,5,-1,7,9,11,13,15,-1,-1,-1,-1,-1,-1,-1,-1],"loss_changes":[9.331384E2,9.534048E2,1.0498657E0,0E0,1.3951099E2,8.550415E-1,1.2144037E0,1.7890482E2,1.454895E1,0E0,0E0,0E0,0E0,0E0,0E0,0E0,0E0],"parents":[2147483647,0,0,1,1,2,2,4,4,5,5,6,6,7,7,8,8],"right_children":[2,4,6,-1,8,10,12,14,16,-1,-1,-1,-1,-1,-1,-1,-1],"split_conditions":[2.4372928E4,4.5271647E5,2.747335E0,-2.9071936E-2,1.9484526E2,8.625316E5,4.993144E4,6.6874656E5,6.668369E5,-2.8995281E-2,9.122798E-3,2.4603829E-2,-2.0928312E-2,9.628001E-3,5.4719776E-2,7.2132014E-2,5.5071946E-2],"split_indices":[7,13,15,0,14,13,4,13,13,0,0,0,0,0,0,0,0],"split_type":[0,0,0,0,0,0,0,0,0,0,0,0,0,0,0,0,0],"sum_hessian":[3.7783752E3,2.212452E3,1.5659232E3,6.5467126E2,1.5577805E3,1.5618469E3,4.076399E0,8.8996155E2,6.6781903E2,1.5607961E3,1.0507665E0,1.4789119E0,2.597487E0,4.92977E2,3.9698453E2,1.9191325E2,4.759058E2],"tree_param":{"num_deleted":"0","num_feature":"20","num_nodes":"17","size_leaf_vector":"1"}},{"base_weights":[7.217856E-3,5.420993E-2,-8.3293736E-2,-2.9629198E-1,3.6280826E-1,1.1641899E-1,-4.0271795E-1,-2.8974954E-2,5.27016E-1,-2.8921444E-2,5.624749E-2,-2.8430402E-2,-1.2021583E-2,7.0225964E-3,5.7291128E-2],"categories":[],"categories_nodes":[],"categories_segments":[],"categories_sizes":[],"default_left":[0,0,0,0,0,0,0,0,0,0,0,0,0,0,0],"id":56,"left_children":[1,-1,3,5,7,9,11,-1,13,-1,-1,-1,-1,-1,-1],"loss_changes":[3.755224E2,0E0,3.377809E2,1.0571947E2,1.7807901E2,3.4682578E2,5.136078E1,0E0,2.3400583E2,0E0,0E0,0E0,0E0,0E0,0E0],"parents":[2147483647,0,0,2,2,3,3,4,4,5,5,6,6,8,8],"right_children":[2,-1,4,6,8,10,12,-1,14,-1,-1,-1,-1,-1,-1],"split_conditions":[1.6721115E4,5.420993E-2,5.190032E2,1.9132258E4,-8.611855E3,2.1262289E5,2.6898087E2,-2.8974954E-2,3.982336E4,-2.8921444E-2,5.624749E-2,-2.8430402E-2,-1.2021583E-2,7.0225964E-3,5.7291128E-2],"split_indices":[6,0,14,6,13,13,14,0,7,0,0,0,0,0,0],"split_type":[0,0,0,0,0,0,0,0,0,0,0,0,0,0,0],"sum_hessian":[3.8504055E3,2.9765732E2,3.552748E3,2.4048508E3,1.1478972E3,4.9298853E2,1.9118624E3,1.6997354E2,9.7792365E2,2.9213953E2,2.0084901E2,9.441956E2,9.6766675E2,6.0266815E2,3.752555E2],"tree_param":{"num_deleted":"0","num_feature":"20","num_nodes":"15","size_leaf_vector":"1"}},{"base_weights":[3.4675704E-4,-2.8992523E-2,3.9338464E-1,9.155753E-1,-5.712737E-1,7.882584E-2,9.9714553E-1,-2.8945645E-2,5.430264E-2,2.2917988E-2,-3.1011594E-2,4.360189E-2,5.9456795E-2],"categories":[],"categories_nodes":[],"categories_segments":[],"categories_sizes":[],"default_left":[0,0,0,0,0,0,0,0,0,0,0,0,0],"id":57,"left_children":[1,-1,3,5,7,9,11,-1,-1,-1,-1,-1,-1],"loss_changes":[8.6567896E2,0E0,1.1405295E3,1.0016382E2,1.0699432E1,3.5184322E1,3.1104248E1,0E0,0E0,0E0,0E0,0E0,0E0],"parents":[2147483647,0,0,2,2,3,3,4,4,5,5,6,6],"right_children":[2,-1,4,6,8,10,12,-1,-1,-1,-1,-1,-1],"split_conditions":[3.1487643E4,-2.8992523E-2,3.982336E4,6.216341E5,2.747335E0,6.3953253E2,7.071161E5,-2.8945645E-2,5.430264E-2,2.2917988E-2,-3.1011594E-2,4.360189E-2,5.9456795E-2],"split_indices":[6,0,7,13,15,14,13,0,0,0,0,0,0],"split_type":[0,0,0,0,0,0,0,0,0,0,0,0,0],"sum_hessian":[3.7941802E3,1.5320757E3,2.2621045E3,1.4676722E3,7.944323E2,1.3054132E2,1.337131E3,7.91435E2,2.9973104E0,8.4829704E1,4.5711613E1,8.129353E2,5.241956E2],"tree_param":{"num_deleted":"0","num_feature":"20","num_nodes":"13","size_leaf_vector":"1"}},{"base_weights":[1.1557672E-2,5.839609E-1,-2.9033387E-2,7.050357E-1,-2.9258097E-2,-2.874345E-2,8.0633485E-1,5.5477824E-2,2.8046295E-2],"categories":[],"categories_nodes":[],"categories_segments":[],"categories_sizes":[],"default_left":[0,0,0,0,0,0,0,0,0],"id":58,"left_children":[1,3,-1,5,-1,-1,7,-1,-1],"loss_changes":[1.2898025E3,2.742832E2,0E0,2.2783246E2,0E0,0E0,1.2033411E2,0E0,0E0],"parents":[2147483647,0,0,1,1,3,3,6,6],"right_children":[2,4,-1,6,-1,-1,8,-1,-1],"split_conditions":[2.0953477E4,6.755355E5,-2.9033387E-2,1.6054885E4,-2.9258097E-2,-2.874345E-2,2.1262289E5,5.5477824E-2,2.8046295E-2],"split_indices":[5,13,0,8,0,0,13,0,0],"split_type":[0,0,0,0,0,0,0,0,0],"sum_hessian":[3.8028196E3,1.9337792E3,1.8690403E3,1.752669E3,1.8111015E2,1.282E2,1.624469E3,7.2506915E2,8.9939984E2],"tree_param":{"num_deleted":"0","num_feature":"20","num_nodes":"9","size_leaf_vector":"1"}},{"base_weights":[-8.353617E-3,9.9223673E-1,-5.650633E-1,-2.872467E-2,5.480299E-2,-2.9035494E-2,5.3293973E-2],"categories":[],"categories_nodes":[],"categories_segments":[],"categories_sizes":[],"default_left":[0,0,0,0,0,0,0],"id":59,"left_children":[1,3,5,-1,-1,-1,-1],"loss_changes":[2.1155015E3,2.2146777E2,6.288745E1,0E0,0E0,0E0,0E0],"parents":[2147483647,0,0,1,1,2,2],"right_children":[2,4,6,-1,-1,-1,-1],"split_conditions":[-3.997012E4,1.6664877E4,6.054827E4,-2.872467E-2,5.480299E-2,-2.9035494E-2,5.3293973E-2],"split_indices":[13,4,4,0,0,0,0],"split_type":[0,0,0,0,0,0,0],"sum_hessian":[3.7957598E3,1.3566433E3,2.4391165E3,8.403221E1,1.2726111E3,2.416577E3,2.2539703E1],"tree_param":{"num_deleted":"0","num_feature":"20","num_nodes":"7","size_leaf_vector":"1"}},{"base_weights":[1.0733567E-2,4.1581038E-1,-5.7415926E-1,-2.8921751E-2,8.20118E-1,3.2583117E-2,-5.754371E-1,5.0478745E-1,1.0876175E0,-2.8839264E-2,6.8894684E-2,5.5565335E-2,-1.0224073E-3,5.744372E-2,-8.88791E-3,2.4075635E-2,-1.7803868E-2],"categories":[],"categories_nodes":[],"categories_segments":[],"categories_sizes":[],"default_left":[0,0,0,0,0,0,0,0,0,0,0,0,0,0,0,0,0],"id":60,"left_children":[1,3,5,-1,7,-1,9,11,13,-1,15,-1,-1,-1,-1,-1,-1],"loss_changes":[8.832616E2,8.858601E2,2.7644348E0,0E0,1.3156396E2,0E0,1.3638611E0,2.2961754E2,6.582031E1,0E0,8.8621217E-1,0E0,0E0,0E0,0E0,0E0,0E0],"parents":[2147483647,0,0,1,1,2,2,4,4,6,6,7,7,8,8,10,10],"right_children":[2,4,6,-1,8,-1,10,12,14,-1,16,-1,-1,-1,-1,-1,-1],"split_conditions":[2.4372928E4,4.5271647E5,2.4413494E4,-2.8921751E-2,1.8227443E2,3.2583117E-2,2.747335E0,2.0717436E4,3.8352158E2,-2.8839264E-2,4.993144E4,5.5565335E-2,-1.0224073E-3,5.744372E-2,-8.88791E-3,2.4075635E-2,-1.7803868E-2],"split_indices":[7,13,5,0,14,0,15,9,3,0,4,0,0,0,0,0,0],"split_type":[0,0,0,0,0,0,0,0,0,0,0,0,0,0,0,0,0],"sum_hessian":[3.7259902E3,2.2015564E3,1.5244337E3,6.3632336E2,1.5652332E3,1.0574383E0,1.5233762E3,7.1971466E2,8.4551843E2,1.5203002E3,3.076144E0,3.334942E2,3.8622046E2,8.065647E2,3.8953773E1,1.493254E0,1.5828902E0],"tree_param":{"num_deleted":"0","num_feature":"20","num_nodes":"17","size_leaf_vector":"1"}},{"base_weights":[8.1859715E-3,5.1908117E-2,-8.145311E-2,-2.9384637E-1,3.641634E-1,-2.8914923E-2,-1.4777002E-1,-2.8791968E-2,5.2295226E-1,4.823742E-2,-2.3879725E-2,7.458868E-3,5.4864377E-2],"categories":[],"categories_nodes":[],"categories_segments":[],"categories_sizes":[],"default_left":[0,0,0,0,0,0,0,0,0,0,0,0,0],"id":61,"left_children":[1,-1,3,5,7,-1,9,-1,11,-1,-1,-1,-1],"loss_changes":[3.5405414E2,0E0,3.3400656E2,9.921069E1,1.7033743E2,0E0,5.803032E2,0E0,2.0915854E2,0E0,0E0,0E0,0E0],"parents":[2147483647,0,0,2,2,3,3,4,4,6,6,8,8],"right_children":[2,-1,4,6,8,-1,10,-1,12,-1,-1,-1,-1],"split_conditions":[1.6721115E4,5.1908117E-2,5.190032E2,2.1262289E5,-8.611855E3,-2.8914923E-2,5.0532403E5,-2.8791968E-2,3.982336E4,4.823742E-2,-2.3879725E-2,7.458868E-3,5.4864377E-2],"split_indices":[6,0,14,13,13,0,13,0,7,0,0,0,0],"split_type":[0,0,0,0,0,0,0,0,0,0,0,0,0],"sum_hessian":[3.8329043E3,3.0602426E2,3.5268801E3,2.3886997E3,1.1381804E3,8.0947107E2,1.5792286E3,1.6410144E2,9.740789E2,3.6068634E2,1.2185424E3,5.9082947E2,3.8324948E2],"tree_param":{"num_deleted":"0","num_feature":"20","num_nodes":"13","size_leaf_vector":"1"}},{"base_weights":[-1.0776253E-3,-2.88342E-2,3.7897435E-1,8.644922E-1,-5.6760144E-1,8.522198E-2,9.398039E-1,-2.877443E-2,5.2633453E-2,2.781122E-2,-2.5526097E-2,4.1156627E-2,5.6847017E-2],"categories":[],"categories_nodes":[],"categories_segments":[],"categories_sizes":[],"default_left":[0,0,0,0,0,0,0,0,0,0,0,0,0],"id":62,"left_children":[1,-1,3,5,7,9,11,-1,-1,-1,-1,-1,-1],"loss_changes":[8.158119E2,0E0,1.0327891E3,8.707544E1,1.0345093E1,3.7315384E1,3.0208496E1,0E0,0E0,0E0,0E0,0E0,0E0],"parents":[2147483647,0,0,2,2,3,3,4,4,5,5,6,6],"right_children":[2,-1,4,6,8,10,12,-1,-1,-1,-1,-1,-1],"split_conditions":[3.1487643E4,-2.88342E-2,3.982336E4,6.216341E5,2.747335E0,-1.14718925E2,7.071161E5,-2.877443E-2,5.2633453E-2,2.781122E-2,-2.5526097E-2,4.1156627E-2,5.6847017E-2],"split_indices":[6,0,7,13,15,1,13,0,0,0,0,0,0],"split_type":[0,0,0,0,0,0,0,0,0,0,0,0,0],"sum_hessian":[3.7272502E3,1.4820696E3,2.2451807E3,1.484062E3,7.611186E2,1.3097374E2,1.3530883E3,7.580733E2,3.0453136E0,7.318172E1,5.7792023E1,8.532715E2,4.9981677E2],"tree_param":{"num_deleted":"0","num_feature":"20","num_nodes":"13","size_leaf_vector":"1"}},{"base_weights":[-7.458333E-4,5.4778093E-1,-2.8870497E-2,6.5763396E-1,-2.9031975E-2,-2.8626908E-2,7.613529E-1,5.3025972E-2,2.6196036E-2],"categories":[],"categories_nodes":[],"categories_segments":[],"categories_sizes":[],"default_left":[0,0,0,0,0,0,0,0,0],"id":63,"left_children":[1,3,-1,5,-1,-1,7,-1,-1],"loss_changes":[1.1811221E3,2.3760315E2,0E0,2.2300574E2,0E0,0E0,1.1374689E2,0E0,0E0],"parents":[2147483647,0,0,1,1,3,3,6,6],"right_children":[2,4,-1,6,-1,-1,8,-1,-1],"split_conditions":[2.1013637E4,6.755355E5,-2.8870497E-2,1.6595885E4,-2.9031975E-2,-2.8626908E-2,2.1262289E5,5.3025972E-2,2.6196036E-2],"split_indices":[5,13,0,5,0,0,13,0,0],"split_type":[0,0,0,0,0,0,0,0,0],"sum_hessian":[3.7319978E3,1.912687E3,1.8193108E3,1.7433839E3,1.6930319E2,1.3520833E2,1.6081755E3,7.100456E2,8.9812994E2],"tree_param":{"num_deleted":"0","num_feature":"20","num_nodes":"9","size_leaf_vector":"1"}},{"base_weights":[-7.6900626E-4,9.6802783E-1,-5.6803703E-1,-2.8499423E-2,5.2506395E-2,-2.88726E-2,4.9743935E-2],"categories":[],"categories_nodes":[],"categories_segments":[],"categories_sizes":[],"default_left":[0,0,0,0,0,0,0],"id":64,"left_children":[1,3,5,-1,-1,-1,-1],"loss_changes":[2.0392103E3,1.7362976E2,3.5010925E1,0E0,0E0,0E0,0E0],"parents":[2147483647,0,0,1,1,2,2],"right_children":[2,4,6,-1,-1,-1,-1],"split_conditions":[-3.1684621E4,1.7230023E4,5.980087E4,-2.8499423E-2,5.2506395E-2,-2.88726E-2,4.9743935E-2],"split_indices":[13,5,5,0,0,0,0],"split_type":[0,0,0,0,0,0,0],"sum_hessian":[3.708573E3,1.3693132E3,2.3392595E3,6.908935E1,1.3002239E3,2.3258792E3,1.3380509E1],"tree_param":{"num_deleted":"0","num_feature":"20","num_nodes":"7","size_leaf_vector":"1"}},{"base_weights":[-6.7533874E-3,3.7405857E-1,-5.7171166E-1,-2.8746191E-2,7.4502355E-1,-5.730769E-1,-4.397293E-2,4.0114033E-1,5.1046457E-2,-2.868594E-2,3.5243419E-3,2.357051E-2,-2.0338135E-2,5.437085E-2,-1.5416794E-3],"categories":[],"categories_nodes":[],"categories_segments":[],"categories_sizes":[],"default_left":[0,0,0,0,0,0,0,0,0,0,0,0,0,0,0],"id":65,"left_children":[1,3,5,-1,7,9,11,13,-1,-1,-1,-1,-1,-1,-1],"loss_changes":[7.998373E2,7.822335E2,1.0533447E0,0E0,1.511206E2,6.571655E-1,1.1164598E0,2.1128809E2,0E0,0E0,0E0,0E0,0E0,0E0,0E0],"parents":[2147483647,0,0,1,1,2,2,4,4,5,5,6,6,7,7],"right_children":[2,4,6,-1,8,10,12,14,-1,-1,-1,-1,-1,-1,-1],"split_conditions":[2.4372928E4,4.5271647E5,2.747335E0,-2.8746191E-2,6.6874656E5,8.625316E5,4.993144E4,2.0767225E4,5.1046457E-2,-2.868594E-2,3.5243419E-3,2.357051E-2,-2.0338135E-2,5.437085E-2,-1.5416794E-3],"split_indices":[7,13,15,0,13,13,4,9,0,0,0,0,0,0,0],"split_type":[0,0,0,0,0,0,0,0,0,0,0,0,0,0,0],"sum_hessian":[3.7157087E3,2.21979E3,1.4959188E3,6.23707E2,1.5960831E3,1.4919731E3,3.9456034E0,7.116058E2,8.844773E2,1.490595E3,1.378206E0,1.506314E0,2.4392893E0,2.7430316E2,4.373026E2],"tree_param":{"num_deleted":"0","num_feature":"20","num_nodes":"15","size_leaf_vector":"1"}},{"base_weights":[1.4904212E-2,4.983103E-2,-7.3232315E-2,-2.8753066E-2,1.1020867E-1,-9.891188E-2,1.052714E0,4.498309E-2,-1.6015641E-2,-2.9523576E-2,5.807395E-2],"categories":[],"categories_nodes":[],"categories_segments":[],"categories_sizes":[],"default_left":[0,0,0,0,0,0,0,0,0,0,0],"id":66,"left_children":[1,-1,3,-1,5,7,9,-1,-1,-1,-1],"loss_changes":[3.2564563E2,0E0,3.179975E2,0E0,4.9876324E2,4.5826855E2,8.280896E1,0E0,0E0,0E0,0E0],"parents":[2147483647,0,0,2,2,4,4,5,5,6,6],"right_children":[2,-1,4,-1,6,8,10,-1,-1,-1,-1],"split_conditions":[1.6721115E4,4.983103E-2,2.1262289E5,-2.8753066E-2,4.109145E4,5.0532403E5,-1.6320768E-1,4.498309E-2,-1.6015641E-2,-2.9523576E-2,5.807395E-2],"split_indices":[6,0,13,0,9,13,16,0,0,0,0],"split_type":[0,0,0,0,0,0,0,0,0,0,0],"sum_hessian":[3.7617551E3,3.0905142E2,3.4527039E3,9.236881E2,2.5290156E3,2.0705112E3,4.585044E2,3.7520035E2,1.6953109E3,2.8190027E1,4.3031436E2],"tree_param":{"num_deleted":"0","num_feature":"20","num_nodes":"11","size_leaf_vector":"1"}},{"base_weights":[-7.338852E-3,-5.3516096E-1,3.8422135E-1,-2.8679391E-2,-1.9288042E-1,-2.8573904E-2,7.181742E-1,5.06982E-1,-5.640188E-1,8.9986116E-1,-4.8681617E-1,3.6943745E-2,-2.481394E-2,3.873648E-2,-3.010857E-2,3.929032E-2,5.381606E-2,-2.885794E-2,5.264443E-2],"categories":[],"categories_nodes":[],"categories_segments":[],"categories_sizes":[],"default_left":[0,0,0,0,0,0,0,0,0,0,0,0,0,0,0,0,0,0,0],"id":67,"left_children":[1,3,5,-1,7,-1,9,11,13,15,17,-1,-1,-1,-1,-1,-1,-1,-1],"loss_changes":[7.64049E2,2.0598114E1,6.777949E2,0E0,4.195619E1,0E0,3.4487274E2,1.3422967E1,5.845253E0,2.667627E1,2.9371296E1,0E0,0E0,0E0,0E0,0E0,0E0,0E0,0E0],"parents":[2147483647,0,0,1,1,2,2,4,4,6,6,7,7,8,8,9,9,10,10],"right_children":[2,4,6,-1,8,-1,10,12,14,16,18,-1,-1,-1,-1,-1,-1,-1,-1],"split_conditions":[6.1973775E5,5.949514E5,3.1454242E4,-2.8679391E-2,-1.9181105E2,-2.8573904E-2,4.4847758E4,6.087445E2,-2.4639282E2,7.0342644E5,6.3036016E4,3.6943745E-2,-2.481394E-2,3.873648E-2,-3.010857E-2,3.929032E-2,5.381606E-2,-2.885794E-2,5.264443E-2],"split_indices":[13,13,8,0,1,0,4,14,3,13,9,0,0,0,0,0,0,0,0],"split_type":[0,0,0,0,0,0,0,0,0,0,0,0,0,0,0,0,0,0,0],"sum_hessian":[3.694883E3,1.5734755E3,2.1214075E3,1.4140485E3,1.59427E2,5.4914996E2,1.5722574E3,5.512006E1,1.0430694E2,1.3664753E3,2.057822E2,4.498564E1,1.01344185E1,2.3552928E0,1.01951645E2,8.333159E2,5.331594E2,1.9496756E2,1.08146305E1],"tree_param":{"num_deleted":"0","num_feature":"20","num_nodes":"19","size_leaf_vector":"1"}},{"base_weights":[2.7369845E-3,5.75863E-1,-2.8769497E-2,6.892814E-1,-2.895963E-2,-2.8483791E-2,7.980351E-1,3.1884257E-2,5.728654E-2],"categories":[],"categories_nodes":[],"categories_segments":[],"categories_sizes":[],"default_left":[0,0,0,0,0,0,0,0,0],"id":68,"left_children":[1,3,-1,5,-1,-1,7,-1,-1],"loss_changes":[1.2350874E3,2.4562317E2,0E0,2.3389111E2,0E0,0E0,8.679077E1,0E0,0E0],"parents":[2147483647,0,0,1,1,3,3,6,6],"right_children":[2,4,-1,6,-1,-1,8,-1,-1],"split_conditions":[2.053998E4,6.6874656E5,-2.8769497E-2,1.6721115E4,-2.895963E-2,-2.8483791E-2,2.0767225E4,3.1884257E-2,5.728654E-2],"split_indices":[6,13,0,6,0,0,9,0,0],"split_type":[0,0,0,0,0,0,0,0,0],"sum_hessian":[3.7255579E3,1.8708727E3,1.8546853E3,1.703959E3,1.6691368E2,1.3515347E2,1.5688054E3,1.0755968E3,4.9320868E2],"tree_param":{"num_deleted":"0","num_feature":"20","num_nodes":"9","size_leaf_vector":"1"}},{"base_weights":[-1.3774768E-2,-5.675734E-1,7.658411E-1,-2.8678969E-2,8.3652246E-1,3.8891357E-1,4.9952466E-2,1.7649978E-3,4.7409214E-2,8.6736584E-1,-2.3649237E-1,4.9829215E-2,7.7909804E-3,-1.957039E-2,1.1971755E-2],"categories":[],"categories_nodes":[],"categories_segments":[],"categories_sizes":[],"default_left":[0,0,0,0,0,0,0,0,0,0,0,0,0,0,0],"id":69,"left_children":[1,3,5,-1,7,9,-1,-1,-1,11,13,-1,-1,-1,-1],"loss_changes":[1.565795E3,1.8360718E1,1.3201294E2,0E0,8.1090164E-1,1.7296486E2,0E0,0E0,0E0,2.9940308E1,1.8601917E1,0E0,0E0,0E0,0E0],"parents":[2147483647,0,0,1,1,2,2,4,4,5,5,9,9,10,10],"right_children":[2,4,6,-1,8,10,-1,-1,-1,12,14,-1,-1,-1,-1],"split_conditions":[3.972712E4,1.0463899E3,5.8508402E4,-2.8678969E-2,3.9238402E4,5.292204E2,4.9952466E-2,1.7649978E-3,4.7409214E-2,5.770254E4,5.7148484E4,4.9829215E-2,7.7909804E-3,-1.957039E-2,1.1971755E-2],"split_indices":[5,3,6,0,9,14,0,0,0,6,6,0,0,0,0],"split_type":[0,0,0,0,0,0,0,0,0,0,0,0,0,0,0],"sum_hessian":[3.6246155E3,2.1193857E3,1.5052297E3,2.110948E3,8.437926E0,5.7635376E2,9.28876E2,1.1930927E0,7.2448335E0,3.263219E2,2.5003185E2,2.7582993E2,5.0491962E1,1.8876578E2,6.126608E1],"tree_param":{"num_deleted":"0","num_feature":"20","num_nodes":"15","size_leaf_vector":"1"}},{"base_weights":[-5.7995925E-3,3.637347E-1,-5.6947845E-1,-5.593553E-1,6.416605E-1,5.883761E-3,-5.701249E-1,-5.66262E-1,3.5029624E-2,3.9140937E-1,9.6842694E-1,-2.8343472E-1,-2.8540853E-2,-2.8402615E-2,-1.4165237E-2,4.3684337E-2,-1.6961113E-2,5.5596706E-2,3.950473E-2,1.0603754E-2,-2.2139974E-2],"categories":[],"categories_nodes":[],"categories_segments":[],"categories_sizes":[],"default_left":[0,0,0,0,0,0,0,0,0,0,0,0,0,0,0,0,0,0,0,0,0],"id":70,"left_children":[1,3,5,7,9,-1,11,13,-1,15,17,19,-1,-1,-1,-1,-1,-1,-1,-1,-1],"loss_changes":[7.55307E2,5.622637E2,7.04895E-1,4.8119354E0,1.3731616E2,0E0,1.2289429E-1,9.4955444E-2,0E0,3.368953E2,1.7793518E1,5.236101E-1,0E0,0E0,0E0,0E0,0E0,0E0,0E0,0E0,0E0],"parents":[2147483647,0,0,1,1,2,2,3,3,4,4,6,6,7,7,9,9,10,10,11,11],"right_children":[2,4,6,8,10,-1,12,14,-1,16,18,20,-1,-1,-1,-1,-1,-1,-1,-1,-1],"split_conditions":[2.4372928E4,1.8826451E4,2.6521979E4,1.997272E4,2.053998E4,5.883761E-3,1.830031E1,1.8820531E4,3.5029624E-2,2.0717436E4,2.1763016E4,3.628974E2,-2.8540853E-2,-2.8402615E-2,-1.4165237E-2,4.3684337E-2,-1.6961113E-2,5.5596706E-2,3.950473E-2,1.0603754E-2,-2.2139974E-2],"split_indices":[7,4,8,6,6,0,0,8,0,9,7,14,0,0,0,0,0,0,0,0,0],"split_type":[0,0,0,0,0,0,0,0,0,0,0,0,0,0,0,0,0,0,0,0,0],"sum_hessian":[3.6240825E3,2.1892305E3,1.434852E3,5.063732E2,1.6828573E3,1.1784763E0,1.4336736E3,5.041601E2,2.213095E0,9.542508E2,7.286065E2,4.4415708E0,1.429232E3,4.9998904E2,4.171054E0,5.7470325E2,3.7954755E2,4.0082263E2,3.2778387E2,1.0003741E0,3.4411967E0],"tree_param":{"num_deleted":"0","num_feature":"20","num_nodes":"21","size_leaf_vector":"1"}},{"base_weights":[1.0123459E-2,4.7951628E-2,-7.729372E-2,-2.834117E-1,3.4901986E-1,1.2635382E-1,-3.893553E-1,-2.8459495E-2,4.986835E-1,-2.8450955E-2,5.1234346E-2,-2.3204206E-2,3.4754071E-3,9.11069E-3,5.0087985E-2],"categories":[],"categories_nodes":[],"categories_segments":[],"categories_sizes":[],"default_left":[0,0,0,0,0,0,0,0,0,0,0,0,0,0,0],"id":71,"left_children":[1,-1,3,5,7,9,11,-1,13,-1,-1,-1,-1,-1,-1],"loss_changes":[3.0585385E2,0E0,2.9677298E2,9.88739E1,1.5156052E2,2.9318753E2,6.206433E1,0E0,1.5059831E2,0E0,0E0,0E0,0E0,0E0,0E0],"parents":[2147483647,0,0,2,2,3,3,4,4,5,5,6,6,8,8],"right_children":[2,-1,4,6,8,10,12,-1,14,-1,-1,-1,-1,-1,-1],"split_conditions":[1.6721115E4,4.7951628E-2,5.190032E2,1.9132258E4,-8.611855E3,2.1262289E5,5.075325E-2,-2.8459495E-2,3.982336E4,-2.8450955E-2,5.1234346E-2,-2.3204206E-2,3.4754071E-3,9.11069E-3,5.0087985E-2],"split_indices":[6,0,14,6,13,13,16,0,7,0,0,0,0,0,0],"split_type":[0,0,0,0,0,0,0,0,0,0,0,0,0,0,0],"sum_hessian":[3.6852715E3,3.1002246E2,3.375249E3,2.2754358E3,1.0998134E3,4.6740964E2,1.808026E3,1.5374722E2,9.4606616E2,2.63674E2,2.0373563E2,1.5548049E3,2.532211E2,5.815765E2,3.6448965E2],"tree_param":{"num_deleted":"0","num_feature":"20","num_nodes":"15","size_leaf_vector":"1"}},{"base_weights":[-6.2953786E-4,-2.852763E-2,3.5667765E-1,7.9149467E-1,-5.6113696E-1,2.274765E-2,8.649504E-1,-2.8459845E-2,4.9063552E-2,3.0996686E-2,-2.0882554E-2,3.7351295E-2,5.186488E-2],"categories":[],"categories_nodes":[],"categories_segments":[],"categories_sizes":[],"default_left":[0,0,0,0,0,0,0,0,0,0,0,0,0],"id":72,"left_children":[1,-1,3,5,7,9,11,-1,-1,-1,-1,-1,-1],"loss_changes":[7.4784595E2,0E0,9.012774E2,8.649414E1,9.586502E0,3.567219E1,2.764624E1,0E0,0E0,0E0,0E0,0E0,0E0],"parents":[2147483647,0,0,2,2,3,3,4,4,5,5,6,6],"right_children":[2,-1,4,6,8,10,12,-1,-1,-1,-1,-1,-1],"split_conditions":[3.1487643E4,-2.852763E-2,3.982336E4,6.216341E5,2.747335E0,3.1101197E4,7.0342644E5,-2.8459845E-2,4.9063552E-2,3.0996686E-2,-2.0882554E-2,3.7351295E-2,5.186488E-2],"split_indices":[6,0,7,13,15,7,13,0,0,0,0,0,0],"split_type":[0,0,0,0,0,0,0,0,0,0,0,0,0],"sum_hessian":[3.6704355E3,1.4141685E3,2.256267E3,1.5310609E3,7.252063E2,1.3365123E2,1.3974097E3,7.220641E2,3.1422064E0,5.65547E1,7.709653E1,8.328715E2,5.645381E2],"tree_param":{"num_deleted":"0","num_feature":"20","num_nodes":"13","size_leaf_vector":"1"}},{"base_weights":[-1.826077E-2,5.4509866E-1,-2.8634233E-2,6.5046537E-1,-2.8723625E-2,-2.8307443E-2,7.569091E-1,2.9519795E-2,5.539247E-2],"categories":[],"categories_nodes":[],"categories_segments":[],"categories_sizes":[],"default_left":[0,0,0,0,0,0,0,0,0],"id":73,"left_children":[1,3,-1,5,-1,-1,7,-1,-1],"loss_changes":[1.1119001E3,2.0867017E2,0E0,2.0948486E2,0E0,0E0,8.6116394E1,0E0,0E0],"parents":[2147483647,0,0,1,1,3,3,6,6],"right_children":[2,4,-1,6,-1,-1,8,-1,-1],"split_conditions":[2.053998E4,6.755355E5,-2.8634233E-2,1.6721115E4,-2.8723625E-2,-2.8307443E-2,2.0767225E4,2.9519795E-2,5.539247E-2],"split_indices":[6,13,0,6,0,0,9,0,0],"split_type":[0,0,0,0,0,0,0,0,0],"sum_hessian":[3.5579048E3,1.7647399E3,1.7931649E3,1.6133234E3,1.514165E2,1.2944888E2,1.4838745E3,1.0081923E3,4.756821E2],"tree_param":{"num_deleted":"0","num_feature":"20","num_nodes":"9","size_leaf_vector":"1"}},{"base_weights":[-5.1910994E-3,9.002791E-1,-5.6237113E-1,-2.810832E-2,4.851931E-2,-2.8593434E-2,4.58253E-2],"categories":[],"categories_nodes":[],"categories_segments":[],"categories_sizes":[],"default_left":[0,0,0,0,0,0,0],"id":74,"left_children":[1,3,5,-1,-1,-1,-1],"loss_changes":[1.7943123E3,1.39453E2,3.144873E1,0E0,0E0,0E0,0E0],"parents":[2147483647,0,0,1,1,2,2],"right_children":[2,4,6,-1,-1,-1,-1],"split_conditions":[-3.1684621E4,1.6664877E4,6.054827E4,-2.810832E-2,4.851931E-2,-2.8593434E-2,4.58253E-2],"split_indices":[13,4,4,0,0,0,0],"split_type":[0,0,0,0,0,0,0],"sum_hessian":[3.5545417E3,1.3538279E3,2.2007139E3,6.1610176E1,1.2922177E3,2.18728E3,1.3433665E1],"tree_param":{"num_deleted":"0","num_feature":"20","num_nodes":"7","size_leaf_vector":"1"}},{"base_weights":[4.220509E-3,3.7136948E-1,-5.652441E-1,-2.8536549E-2,7.374453E-1,3.0644476E-2,-5.66596E-1,8.4729004E-1,8.28205E-2,-2.8402243E-2,9.7755164E-2,1.8075632E-2,5.1403917E-2,-2.447463E-2,4.9590807E-2,2.3343233E-2,-1.6532278E-2],"categories":[],"categories_nodes":[],"categories_segments":[],"categories_sizes":[],"default_left":[0,0,0,0,0,0,0,0,0,0,0,0,0,0,0,0,0],"id":75,"left_children":[1,3,5,-1,7,-1,9,11,13,-1,15,-1,-1,-1,-1,-1,-1],"loss_changes":[7.449215E2,7.4751373E2,2.5716553E0,0E0,1.1213965E2,0E0,1.3988342E0,1.1697296E2,1.17709E2,0E0,7.6948506E-1,0E0,0E0,0E0,0E0,0E0,0E0],"parents":[2147483647,0,0,1,1,2,2,4,4,6,6,7,7,8,8,10,10],"right_children":[2,4,6,-1,8,-1,10,12,14,-1,16,-1,-1,-1,-1,-1,-1],"split_conditions":[2.4372928E4,4.5271647E5,2.4413494E4,-2.8536549E-2,4.590332E-2,3.0644476E-2,2.747335E0,1.4969214E2,6.755355E5,-2.8402243E-2,4.993144E4,1.8075632E-2,5.1403917E-2,-2.447463E-2,4.9590807E-2,2.3343233E-2,-1.6532278E-2],"split_indices":[7,13,5,0,16,0,15,14,13,0,4,0,0,0,0,0,0],"split_type":[0,0,0,0,0,0,0,0,0,0,0,0,0,0,0,0,0],"sum_hessian":[3.5608782E3,2.1652388E3,1.3956392E3,6.0575696E2,1.5594819E3,1.0811626E0,1.3945581E3,1.3351517E3,2.2433011E2,1.391668E3,2.8900332E0,3.629382E2,9.7221356E2,1.3794194E2,8.638817E1,1.5042171E0,1.3858162E0],"tree_param":{"num_deleted":"0","num_feature":"20","num_nodes":"17","size_leaf_vector":"1"}},{"base_weights":[8.427809E-3,4.6237845E-2,-7.284535E-2,-2.7781785E-1,3.2890165E-1,1.1843846E-1,-3.8779247E-1,4.3943968E-1,-2.813E-2,-2.257115E-2,4.812548E-2,-2.2955623E-2,3.4146798E-3,7.4256225E-3,4.4196684E-2],"categories":[],"categories_nodes":[],"categories_segments":[],"categories_sizes":[],"default_left":[0,0,0,0,0,0,0,0,0,0,0,0,0,0,0],"id":76,"left_children":[1,-1,3,5,7,9,11,13,-1,-1,-1,-1,-1,-1,-1],"loss_changes":[2.721401E2,0E0,2.764981E2,9.6927185E1,1.1204093E2,2.3311046E2,5.6644165E1,1.304595E2,0E0,0E0,0E0,0E0,0E0,0E0,0E0],"parents":[2147483647,0,0,2,2,3,3,4,4,5,5,6,6,7,7],"right_children":[2,-1,4,6,8,10,12,14,-1,-1,-1,-1,-1,-1,-1],"split_conditions":[1.6721115E4,4.6237845E-2,5.148141E2,1.9132258E4,5.8286566E4,1.7651184E4,5.355061E-2,4.277797E4,-2.813E-2,-2.257115E-2,4.812548E-2,-2.2955623E-2,3.4146798E-3,7.4256225E-3,4.4196684E-2],"split_indices":[6,0,14,6,6,8,16,7,0,0,0,0,0,0,0],"split_type":[0,0,0,0,0,0,0,0,0,0,0,0,0,0,0],"sum_hessian":[3.652309E3,2.967026E2,3.3556064E3,2.2221616E3,1.1334448E3,4.827302E2,1.7394314E3,1.00886224E3,1.2458262E2,2.884517E2,1.9427847E2,1.5042062E3,2.3522522E2,6.1057007E2,3.9829218E2],"tree_param":{"num_deleted":"0","num_feature":"20","num_nodes":"15","size_leaf_vector":"1"}},{"base_weights":[-9.198165E-3,-2.8396416E-2,3.388512E-1,7.5518984E-1,-5.6357193E-1,7.881984E-1,-1.2853158E-1,-2.8313741E-2,3.0367395E-2,4.733638E-2,3.3145145E-2,3.4304824E-2,-3.3929475E-2],"categories":[],"categories_nodes":[],"categories_segments":[],"categories_sizes":[],"default_left":[0,0,0,0,0,0,0,0,0,0,0,0,0],"id":77,"left_children":[1,-1,3,5,7,9,11,-1,-1,-1,-1,-1,-1],"loss_changes":[6.944199E2,0E0,8.2711005E2,4.4034424E1,2.5442352E0,2.821344E1,2.5150673E1,0E0,0E0,0E0,0E0,0E0,0E0],"parents":[2147483647,0,0,2,2,3,3,4,4,5,5,6,6],"right_children":[2,-1,4,6,8,10,12,-1,-1,-1,-1,-1,-1],"split_conditions":[3.1487643E4,-2.8396416E-2,3.982336E4,7.2084494E-2,4.209057E1,5.1109625E2,5.190032E2,-2.8313741E-2,3.0367395E-2,4.733638E-2,3.3145145E-2,3.4304824E-2,-3.3929475E-2],"split_indices":[6,0,7,16,10,14,14,0,0,0,0,0,0],"split_type":[0,0,0,0,0,0,0,0,0,0,0,0,0],"sum_hessian":[3.5689226E3,1.3696179E3,2.1993047E3,1.5050867E3,6.942181E2,1.4509974E3,5.408927E1,6.9313446E2,1.0836346E0,6.3765424E2,8.133432E2,2.1701836E1,3.2387436E1],"tree_param":{"num_deleted":"0","num_feature":"20","num_nodes":"13","size_leaf_vector":"1"}},{"base_weights":[-7.5195166E-3,4.840441E-1,-2.8444622E-2,8.9322424E-1,2.2284837E-1,9.1661334E-1,-2.716577E-2,-1.7423595E-1,7.9702455E-1,-2.2675095E-2,4.6153907E-2,-2.5234742E-2,2.9282665E-2,4.9770158E-2,-3.0660817E-2],"categories":[],"categories_nodes":[],"categories_segments":[],"categories_sizes":[],"default_left":[0,0,0,0,0,0,0,0,0,0,0,0,0,0,0],"id":78,"left_children":[1,3,-1,5,7,9,-1,11,13,-1,-1,-1,-1,-1,-1],"loss_changes":[9.752327E2,2.0117752E2,0E0,2.515332E1,2.6265457E2,6.817383E0,0E0,1.7142621E2,1.3235342E2,0E0,0E0,0E0,0E0,0E0,0E0],"parents":[2147483647,0,0,1,1,3,3,4,4,5,5,7,7,8,8],"right_children":[2,4,-1,6,8,10,-1,12,14,-1,-1,-1,-1,-1,-1],"split_conditions":[2.1013637E4,-4.4835072E-2,-2.8444622E-2,1.9155602E4,2.0256146E4,-1.7692693E-1,-2.716577E-2,1.3160707E0,1.9484526E2,-2.2675095E-2,4.6153907E-2,-2.5234742E-2,2.9282665E-2,4.9770158E-2,-3.0660817E-2],"split_indices":[5,16,0,7,4,16,0,15,14,0,0,0,0,0,0],"split_type":[0,0,0,0,0,0,0,0,0,0,0,0,0,0,0],"sum_hessian":[3.5320881E3,1.8832056E3,1.6488827E3,7.328026E2,1.150403E3,7.2141876E2,1.1383883E1,6.8049084E2,4.6991205E2,3.0632389E0,7.183555E2,4.7448413E2,2.0600673E2,4.1221936E2,5.7692715E1],"tree_param":{"num_deleted":"0","num_feature":"20","num_nodes":"15","size_leaf_vector":"1"}},{"base_weights":[-9.97827E-3,8.6730564E-1,-5.5378205E-1,-2.8035477E-2,4.6803188E-2,-2.8452788E-2,4.5329776E-2],"categories":[],"categories_nodes":[],"categories_segments":[],"categories_sizes":[],"default_left":[0,0,0,0,0,0,0],"id":79,"left_children":[1,3,5,-1,-1,-1,-1],"loss_changes":[1.656434E3,1.3098328E2,4.8325745E1,0E0,0E0,0E0,0E0],"parents":[2147483647,0,0,1,1,2,2],"right_children":[2,4,6,-1,-1,-1,-1],"split_conditions":[-3.997012E4,1.6664877E4,6.054827E4,-2.8035477E-2,4.6803188E-2,-2.8452788E-2,4.5329776E-2],"split_indices":[13,4,4,0,0,0,0],"split_type":[0,0,0,0,0,0,0],"sum_hessian":[3.4700896E3,1.3276622E3,2.1424275E3,6.0660934E1,1.2670012E3,2.1208562E3,2.1571062E1],"tree_param":{"num_deleted":"0","num_feature":"20","num_nodes":"7","size_leaf_vector":"1"}},{"base_weights":[8.815678E-4,3.507124E-1,-5.6406444E-1,-2.8424412E-2,6.8057513E-1,2.9769748E-2,-2.8272523E-2,1.9848083E-1,8.268395E-1,4.865515E-2,-2.0507468E-2,4.662023E-2,-1.2258458E-3],"categories":[],"categories_nodes":[],"categories_segments":[],"categories_sizes":[],"default_left":[0,0,0,0,0,0,0,0,0,0,0,0,0],"id":80,"left_children":[1,3,5,-1,7,-1,-1,9,11,-1,-1,-1,-1],"loss_changes":[6.937315E2,6.576835E2,2.4937744E0,0E0,1.1235809E2,0E0,0E0,1.76142E2,1.1002771E2,0E0,0E0,0E0,0E0],"parents":[2147483647,0,0,1,1,2,2,4,4,7,7,8,8],"right_children":[2,4,6,-1,8,-1,-1,10,12,-1,-1,-1,-1],"split_conditions":[2.4372928E4,4.5271647E5,2.4413494E4,-2.8424412E-2,1.3792395E2,2.9769748E-2,-2.8272523E-2,2.0429168E4,1.4451759E0,4.865515E-2,-2.0507468E-2,4.662023E-2,-1.2258458E-3],"split_indices":[7,13,5,0,12,0,0,5,15,0,0,0,0],"split_type":[0,0,0,0,0,0,0,0,0,0,0,0,0],